the -0.383396 -0.480674 -0.27414099999999997 0.132697 0.06488499999999997 -0.092489 -0.0029909999999999937 0.168918 0.42769 0.032062000000000035 0.600652 0.0045550000000000035 0.221568 -0.106817 0.339955 -0.24816500000000002 -0.06553399999999998 0.16503099999999998 -0.098915 -0.26706 -0.351612 -0.595836 -0.748328 -0.262191 -0.400183 0.306477 0.13247 0.149532 -0.462982 0.436406 -0.328406 -0.11229700000000001 -0.318158 -0.586177 -0.24174600000000002 -0.38285899999999995 -0.433786 5.955204999999999 0.137239 -0.064516 0.456522 -0.019239000000000006 0.260624 -0.293577 0.19897499999999999 0.277653 0.164552 0.40649 -0.227907 -0.400316
of 0.081024 0.385094 -0.478561 -0.270393 -0.265656 0.104283 -0.10214800000000002 -0.05329600000000001 0.137607 -0.13687800000000006 1.0090940000000002 -0.2046 0.21036 0.39535000000000003 0.45007300000000006 -0.305846 0.21920499999999998 0.818313 -0.343 -0.41580900000000004 -0.733569 -0.10172500000000001 -0.511787 -0.482572 0.476731 0.27181 0.48225999999999997 0.010394 -0.313203 0.668972 -0.352919 -0.075739 0.42322899999999997 -0.454168 -0.458308 0.17683300000000002 0.421319 5.7099709999999995 -0.29793600000000003 -0.04622700000000002 0.155001 -0.251261 -0.060518 0.288794 0.19277500000000003 0.20576 -0.305577 0.317825 -0.080874 -0.37568199999999996
and 0.074092 -0.670268 0.233933 -0.152221 0.01710600000000001 0.522808 0.013312999999999992 0.24813200000000002 -0.280624 -0.37998 -0.03665600000000002 0.074479 -0.054634 0.24386199999999997 -0.101626 0.158578 0.11183899999999997 0.35931599999999997 0.312089 -0.237202 0.39212600000000003 0.089814 0.052152000000000004 -0.23244900000000002 0.33650800000000003 -0.12367 0.20493 0.40960199999999997 -0.016930999999999988 -0.025139999999999996 -0.017555000000000043 0.20927500000000002 -0.0497 -0.250335 0.136878 0.578235 0.23323 5.537241 0.20236300000000002 0.186384 -0.30370199999999997 -0.5728000000000001 0.011246000000000006 0.630198 0.21731699999999998 0.325041 -0.388473 -0.208841 -0.16081799999999996 -0.296012
to -0.014066999999999996 0.091024 0.665814 -0.043248999999999996 -0.039978000000000014 -0.365283 -0.33598 -0.543361 -0.313144 0.05347999999999997 0.366179 0.830578 0.071837 0.33798 0.045426999999999995 -0.38480499999999995 0.009344999999999937 0.148856 0.122113 -0.013086000000000042 0.35328 0.13192100000000004 -0.40822 0.062028 -0.545845 -0.12284500000000001 -0.720734 0.314388 0.529251 0.17129400000000003 0.05509999999999998 -0.301741 0.05476 -0.472018 -0.08310600000000001 -0.14804 -0.034342 5.925275 0.20447700000000002 0.016105 -0.11532200000000001 0.5499970000000001 0.37117500000000003 0.5339579999999999 -0.33396699999999996 0.03717599999999999 -0.59023 -0.045962 0.03811600000000001 -0.168247
a -0.836706 -0.307824 -0.885504 0.20244900000000002 -0.05562600000000001 0.08596999999999999 -0.28265 -0.22402599999999995 -0.305844 -0.04656199999999999 0.05996800000000002 0.148945 0.34590699999999996 0.07719199999999998 -0.25000599999999995 0.05129299999999999 -0.11723599999999995 -0.231508 -0.499152 0.79543 -0.802742 0.30039899999999997 -0.033779 -0.177291 0.05136100000000002 -0.156143 0.06737699999999999 -0.141567 0.259665 0.509791 -0.25025699999999995 -0.524823 0.165067 -0.136348 -0.291097 -0.037278000000000006 0.15337299999999998 5.994792 0.018618000000000023 -0.215137 -0.104796 0.088786 -0.6448050000000001 -0.315142 0.11920199999999999 0.916118 0.23808600000000002 0.42003100000000004 0.025900000000000006 0.621727
in 0.250259 -0.183904 -0.531729 -0.302631 0.052898 0.330797 -0.120472 0.21206500000000006 -0.196435 0.33722300000000005 0.421248 0.235484 -0.327503 -0.004990000000000022 0.283728 -0.794262 0.036397999999999986 0.471187 -0.24873599999999998 -0.10827900000000001 -0.05798800000000001 -0.0064690000000000025 0.176105 -0.327496 0.155362 0.192715 -0.495479 -0.352929 -0.469936 0.79315 -0.660604 -0.050987000000000005 0.39129800000000003 0.08971499999999999 0.127839 -0.052100999999999995 0.582955 5.896993999999999 -0.33370099999999997 0.127872 0.124278 -0.195542 0.292728 -0.38603 0.329123 -0.125764 -0.169733 -0.230974 -0.24259100000000003 -0.185776
for 0.04644599999999999 -0.311391 0.381229 -0.238657 -0.21158500000000002 -0.080208 0.187364 -0.417211 0.128749 0.5268569999999999 -0.39513299999999996 0.055723999999999996 0.07894200000000001 -0.190849 0.014515 -0.049381999999999995 0.32306899999999994 0.31089700000000003 0.43428100000000003 -0.09397500000000003 -0.341294 -0.22725 0.258608 -0.486421 -0.23637900000000003 0.182514 -0.296776 0.049283999999999994 0.535683 -0.063891 0.20773799999999998 -0.16732600000000003 0.263063 -0.04565799999999999 -0.628698 -0.047303000000000005 -0.15424300000000002 5.857925 0.29810800000000004 -0.184458 -0.210946 -0.01944 -0.126066 -0.025046000000000013 -0.21232499999999999 0.611142 -0.38661999999999996 -0.008544000000000024 -0.14506799999999997 0.066374
is -0.297277 0.8042050000000001 -0.88985 0.200757 0.16200399999999998 0.406132 0.26170499999999997 0.004334999999999978 -0.668411 -0.40933600000000003 0.558666 0.0013179999999999997 -0.427145 0.04147300000000001 -0.656053 0.25259600000000004 -0.39506600000000003 -0.371346 -0.498853 0.23248100000000002 -0.8748819999999999 0.348012 -0.323645 -0.300444 -0.141911 0.222162 0.22916899999999998 0.19083 -0.05552 0.32060799999999995 -0.331628 -0.060143999999999996 -0.205767 -0.450737 -0.670979 -0.308259 0.327786 5.407443000000001 0.101804 0.83507 0.0022010000000000085 -0.047493 -0.081888 -0.28586 -0.34833400000000003 0.670786 0.505128 0.25859 0.087447 0.9926379999999999
on -0.14300500000000002 -0.750983 0.293958 0.040128 -0.012178999999999995 0.10187299999999999 -0.304249 0.03810599999999997 -0.28803999999999996 0.26792299999999997 -0.05107599999999998 0.599279 0.021584000000000006 -0.30162900000000004 0.31679199999999996 0.0003449999999999981 0.15255799999999997 -0.01891900000000002 -0.260884 0.157476 0.21217199999999997 -0.20462 -0.08386099999999999 -0.17416500000000001 -0.23850000000000002 -0.016940999999999998 -0.30864800000000003 0.05799699999999999 -0.218035 0.22553099999999998 -0.510273 -0.54682 -0.304185 0.177265 -0.293563 -0.43447 -0.15028999999999998 5.844875 -0.569864 -0.456852 0.06925199999999998 0.5421119999999999 0.01969499999999999 -0.31197199999999997 0.313258 0.141553 -0.20795700000000006 -0.45014499999999996 0.377047 -0.383219
that 0.15389699999999998 0.326198 0.184745 -0.07716 0.34585099999999996 0.060683 0.057044 -0.09079100000000007 -0.44601900000000005 -0.044579000000000035 0.36486399999999997 0.365734 0.42683299999999996 -0.057766999999999985 0.462463 0.361961 -0.19320299999999999 -0.36496700000000004 -0.09044 -0.647312 -0.03182399999999999 0.006476999999999983 -0.270487 -0.290452 0.073584 0.338268 0.20839600000000003 0.606941 0.180226 -0.22840700000000003 0.11913599999999996 -0.47853100000000004 -0.1186 -1.110851 -0.057633000000000004 0.211191 0.168087 5.841773 -0.103323 0.025651999999999994 0.02449699999999999 0.5267310000000001 0.09115699999999999 0.15083799999999997 -0.42278099999999996 0.818404 0.0013120000000000354 0.674732 0.147774 0.47977499999999995
by -0.090814 -0.242052 0.627328 -0.495351 0.42793800000000004 0.41105 0.375942 0.3852439999999999 -0.079402 0.654683 0.564022 0.162242 0.412987 -0.20596699999999998 0.6771900000000001 0.15434199999999998 0.406346 -0.042927999999999966 0.151891 -0.465833 0.7944140000000001 0.23723100000000003 -0.030532000000000004 -0.319506 0.373166 -0.135278 0.616505 0.143949 -0.448514 0.016345 0.170597 -0.362147 0.096957 -0.110557 0.6298469999999999 0.265781 -0.349312 5.39528 -0.10855100000000006 0.18247699999999997 -0.708727 0.083068 0.059438000000000005 -0.080451 0.641918 0.533371 0.11236099999999999 0.232593 0.145705 -0.27468899999999996
this 0.35266800000000004 0.266398 -0.62066 -0.137769 0.0011610000000000231 -0.042119 -0.020045 0.16559500000000005 -0.413393 -0.09992999999999996 0.479802 0.117569 0.281264 -0.505641 0.23803400000000002 -0.051578000000000006 -0.04704600000000003 -0.366719 -0.052456 -0.09989800000000001 -0.527505 -0.07545 -0.10957599999999998 0.14090000000000003 0.134595 0.170706 -0.32697 0.254652 0.067618 0.12614200000000003 -0.20494300000000001 0.111773 -0.126756 -0.530517 -0.391791 -0.196442 0.19594299999999998 5.670578000000001 -0.012579000000000007 0.545147 -0.0030030000000000057 0.579386 0.406929 0.26059 0.00832899999999999 0.395315 0.418029 0.17871599999999999 0.16514399999999999 0.288601
with -0.046985 -1.1384050000000001 0.056311999999999994 -0.12426899999999999 -0.193764 0.25332 -0.143346 0.008492999999999973 -0.29442799999999997 -0.27247899999999997 -0.15686799999999998 0.475815 0.347974 -0.24798200000000004 -0.27574899999999997 -0.112495 0.39056599999999997 0.07741199999999998 0.356544 0.10742799999999997 0.154188 0.263381 0.477642 -0.429353 0.18226900000000001 -0.08734299999999999 0.325809 0.49795100000000003 -0.11280599999999999 0.20297599999999996 0.18277300000000002 -0.014908000000000005 -0.154692 -0.24406899999999998 -0.16209600000000002 0.09998800000000001 0.065126 5.594075999999999 0.13417199999999996 -0.153574 -0.110671 -0.360971 -0.364778 0.241744 0.188949 0.697387 -0.279959 -0.090174 0.10111700000000001 0.03406000000000001
i -0.267623 0.370661 -0.397909 0.298752 0.819396 -1.212462 0.06974699999999999 0.79749 -0.015769000000000005 -0.9793339999999999 -0.586194 0.037215 0.134839 -1.124453 -0.588785 -0.03405899999999999 -0.623188 -0.814195 0.756618 0.06673400000000002 0.05630099999999999 0.6446149999999999 0.36003999999999997 1.007218 -0.540691 -0.012922 -0.969083 0.807868 -0.32272999999999996 -0.13175800000000001 -0.261161 0.076151 -0.16087400000000002 -1.1433550000000001 0.207937 -0.343828 -0.090842 5.422135 0.076764 0.07082999999999999 -0.817773 0.482133 0.226223 1.012836 -1.172099 -0.958666 -0.11168800000000001 0.254203 0.10947000000000001 1.5250569999999999
you -0.722541 0.113849 -0.494047 0.284213 0.332407 -0.774548 0.385711 0.40956 -0.398897 -0.984621 -1.29427 -0.115065 0.13288 -0.045762 -0.509939 0.298282 -0.525091 -1.4538200000000001 0.888722 0.266903 -0.457995 0.314741 0.02551100000000002 0.842078 -0.529442 -0.40473 -1.026044 0.690705 0.337046 -0.454925 0.018049999999999997 0.039451 -0.49843800000000005 -1.061812 -0.876207 0.334437 -0.231704 5.372093 0.144015 -0.159958 -0.465508 1.077823 0.36613 1.527966 -1.359998 -0.531031 0.081502 0.07741500000000001 0.20210100000000003 1.2580719999999999
it -0.04987799999999999 0.230496 -0.24118299999999998 0.12324700000000001 0.434409 0.182032 0.410169 -0.08863200000000004 -0.8200810000000001 -0.11140700000000003 0.18741599999999997 0.472776 0.117624 -0.089884 0.19162600000000002 -0.431439 -0.17574700000000004 -0.657064 -0.109628 0.014749999999999985 -0.187167 0.010707000000000001 -0.11855499999999997 -0.131144 -0.213921 0.233183 -0.225974 0.310581 -0.006727 0.04325300000000004 -0.37917599999999996 0.035100000000000006 -0.342877 -0.731544 -0.046048 -0.346369 -0.03916899999999998 5.847534 -0.28457499999999997 0.483235 -0.378818 0.22893200000000002 0.6085879999999999 0.27054999999999996 -0.205305 0.22839 0.15887099999999998 0.171202 0.26870700000000003 0.6650579999999999
not 0.234814 0.421873 0.10023400000000002 -0.019187999999999983 0.28244800000000003 -0.311313 0.260249 -0.29697300000000004 -0.332969 -0.30145599999999995 0.13120700000000002 0.114463 0.054096000000000005 -0.216216 0.29386 0.383507 -0.317302 -0.514866 0.21342899999999998 -0.18063799999999997 0.462631 0.24098999999999998 0.071146 0.146583 -0.44986400000000004 0.47184 -0.730948 0.719509 0.401145 -0.689662 -0.07121700000000003 -0.144068 0.14045600000000003 -1.027369 -0.0016289999999999985 -0.199473 -0.152219 5.680103 0.19417399999999999 0.405749 0.058163999999999993 0.398336 0.41595899999999997 0.768978 -0.778153 0.700408 -0.186824 0.7300610000000001 0.07600199999999999 0.78939
or -0.379635 -0.385058 -0.5740270000000001 -0.273215 -0.451345 0.32785200000000003 0.466178 -0.532992 -0.153283 -0.6980360000000001 0.04370400000000001 0.540384 0.030855 0.776044 0.11527100000000001 0.354295 -0.38051300000000005 -0.25362999999999997 0.135434 -0.061938999999999966 0.004095000000000015 0.725479 -0.148221 0.368772 0.02816400000000001 -0.18714 -0.905527 0.190921 0.07827600000000001 0.164713 0.09912099999999996 0.204756 0.452201 -0.46452800000000005 -0.636536 0.08324199999999998 -0.885973 5.266902999999999 -0.180354 -0.05978800000000001 0.083453 -0.012251000000000001 -0.273929 1.2588780000000002 -0.301659 0.17320200000000002 -0.14532099999999998 0.413454 0.425641 0.304631
be 0.32093700000000003 -0.147615 0.10988299999999998 0.21848800000000002 0.22450799999999999 0.140547 0.464332 -0.36162099999999997 -0.213493 -0.19671100000000008 0.18715 0.403356 -0.034071 -0.5548420000000001 -0.017187 0.210269 -0.23889700000000003 -0.476704 -0.05950799999999999 -0.07023000000000001 0.326175 -0.083912 0.144967 -0.45032 -0.568341 0.48926899999999995 -0.564967 0.216585 0.21896300000000002 -0.301717 0.148221 -0.333782 0.372135 -1.185139 -0.059888000000000004 -0.23661 -0.11539800000000003 5.6828009999999995 0.17758 0.453809 0.16666299999999998 0.51496 0.648292 0.618792 -0.49693200000000004 0.5747329999999999 0.08416599999999999 0.597534 0.043622999999999995 0.941657
are 0.7328680000000001 -1.070611 0.124412 -0.289567 -0.707046 0.696542 0.740592 -0.20879999999999999 0.03934199999999999 -1.038146 -0.115417 -0.242635 0.003423 0.23255499999999998 0.028709 0.631339 -0.156093 -0.180458 -0.143771 -0.84998 0.42308999999999997 -0.193954 0.05035700000000001 -0.5079440000000001 -0.090578 0.5729839999999999 -0.16857399999999997 0.376629 -0.032851000000000005 -0.35823499999999997 0.397798 0.628384 0.210676 -1.388223 -0.49461599999999994 0.403621 -0.096362 5.4693819999999995 0.20696000000000003 0.441823 0.678376 -0.122224 0.850928 1.1059510000000001 -0.382464 0.189048 -0.062923 0.35320999999999997 -0.021165000000000017 0.51239
from -0.155364 -0.360225 0.293644 -0.192766 -0.305805 0.231385 0.068092 -0.16970300000000005 -0.15779 0.322853 0.34286 0.553212 0.24525599999999997 0.35711000000000004 0.12913000000000002 -0.17186800000000002 0.44553300000000007 0.359475 -0.484511 -0.11197199999999999 0.12944600000000003 0.6008830000000001 0.04192600000000002 -0.203249 -0.19197699999999998 -0.07191300000000002 -0.377075 -0.34983800000000004 -0.538284 0.983345 -0.34062899999999996 -0.492859 0.217406 0.17185799999999998 0.24733900000000003 0.278694 0.098982 5.600686 -0.28185499999999997 -0.12254799999999999 -0.304801 -0.042751 0.230825 0.113384 -0.196805 -0.333409 -0.527222 -0.573726 -0.046818000000000026 -0.26705199999999996
at 0.22768199999999997 -0.10347700000000001 -0.092851 0.459841 -0.530851 -0.295535 -0.6938150000000001 0.55767 -0.285082 0.129728 -0.601256 0.150406 -0.800322 -0.576893 -0.567058 -1.100754 0.54766 0.011722999999999983 -0.591798 -0.0852 0.455036 -0.046666 0.259596 0.665011 -0.951413 0.175094 -0.642192 -0.874336 -0.02973 1.227931 -0.25929500000000005 -0.562178 0.488985 -0.28485 0.26383100000000004 -0.12754700000000002 -0.068025 5.6277919999999995 -0.5436150000000001 -0.708073 0.062717 0.41589600000000004 -0.409652 0.14368399999999998 0.366609 -0.433202 -0.494546 -1.353677 -0.249465 -0.5714940000000001
as -0.227387 -0.170753 0.164748 0.02049300000000001 0.21665199999999996 0.144289 0.314848 0.25470800000000005 -0.044835000000000014 -0.22142299999999998 0.387587 0.098424 0.020515000000000005 -0.239818 0.014161000000000007 0.20382499999999998 -0.232433 -0.091253 0.151975 -0.207132 -0.174827 0.57594 0.008078000000000002 -0.20608200000000002 0.06799 0.04047 -0.182892 0.014908000000000005 -0.18906299999999998 0.11710699999999999 0.01901999999999998 0.002031999999999992 0.13493 -0.21149900000000002 0.037558999999999995 0.297389 0.0009319999999999884 5.388211 0.36838599999999994 0.370855 -0.07942199999999999 -0.206152 0.08523800000000001 0.140101 0.219262 0.538144 0.11226799999999998 0.20757499999999998 0.18737700000000002 0.427865
your -1.214517 -0.422806 -1.081438 0.552639 0.608455 -0.862141 0.249749 -0.042026999999999995 -0.166653 -0.866297 -0.979758 0.536422 -0.080378 0.273092 -0.661579 0.505852 -0.934299 -1.057323 1.578168 0.44835900000000006 -1.085574 0.010028999999999996 -0.669967 0.70712 -0.201947 -0.19237400000000002 -0.8329960000000001 0.364249 1.071994 -0.104759 0.004605999999999999 -0.137483 -0.5891919999999999 -0.7622260000000001 -0.9600120000000001 0.77668 -0.360542 4.820478 0.312064 -0.42201 -0.279259 0.735908 0.170078 1.351682 -1.299925 -0.47395 -0.338667 0.188797 0.882883 0.41158700000000004
all 0.364043 -0.71514 -0.097815 -0.364645 -0.167414 -0.102392 0.28638399999999997 -0.34235200000000005 0.31570000000000004 -0.303971 -0.087556 -0.20279 -0.012809999999999988 -0.126836 0.076199 0.101271 0.38070499999999996 -0.13969199999999998 0.498108 -0.27759 0.0782 -0.36038699999999996 0.40286 0.054227 -0.239555 0.15945900000000002 -0.278705 0.424457 -0.13129000000000002 -0.57364 0.25057399999999996 0.15434599999999998 -0.197585 -0.760694 -0.495138 -0.002449 -0.143743 5.440709 0.253715 0.173764 0.090164 -0.272792 0.401639 1.0904690000000001 -0.29805400000000004 -0.168918 -0.37099 0.424552 -0.055642 0.424972
have 0.605425 -0.67647 0.543798 -0.468899 -0.21666699999999997 0.11107900000000001 0.44782299999999997 -0.1093590000000001 0.16453900000000002 -0.36002999999999996 0.228017 0.08086900000000001 0.43442499999999995 0.08891700000000001 0.310581 0.317278 -0.007474999999999982 -0.065048 0.0022900000000000004 -0.941646 0.695384 -0.281049 0.408673 -0.6924619999999999 0.010304 0.660586 -0.143812 0.280197 -0.173073 -0.30682299999999996 0.246722 -0.035767999999999994 0.09003 -1.477303 0.10420000000000001 0.300375 0.07822599999999999 5.7985240000000005 0.301481 -0.11196 0.376127 0.23377199999999998 0.601244 0.653652 -0.6574819999999999 0.253442 -0.24953100000000003 0.443528 -0.292696 0.35889499999999996
new 0.101553 -0.12074099999999999 0.46966600000000003 0.07760600000000001 -0.25874199999999997 -0.142133 0.242135 0.11461499999999997 0.186844 0.386329 -0.582479 0.07585700000000001 0.029791000000000012 -0.11339700000000001 0.146105 -0.6861900000000001 -0.291356 -0.4537 -0.500041 -0.334022 -0.194415 -0.158726 0.21087200000000003 0.019601000000000007 0.114812 -0.506941 -0.182994 -0.287003 0.324674 -0.131297 0.430645 -0.067046 -0.200736 -0.07214200000000001 -0.679054 0.289398 0.242663 5.616726 0.14015 0.39290099999999994 0.160687 -0.31372 0.153177 -0.85971 0.613221 0.116257 -0.166329 -0.518365 0.178332 -0.36233699999999996
more 0.4531 -0.40135600000000005 0.152419 -0.174508 -0.726425 0.322046 0.286995 -0.618341 -0.234355 -0.764974 -0.006489999999999996 -0.128352 0.427708 -0.18637399999999998 0.20351 0.190306 -0.0062429999999999986 -0.22256800000000002 -0.103655 -0.05271600000000001 -0.31441 -0.117604 0.511152 -0.412442 0.390258 -0.018701999999999996 -0.101933 -0.160972 0.267397 -0.256558 0.663142 0.299682 0.319478 -1.10557 -0.066851 0.551799 0.482155 5.75638 -0.06059499999999998 -0.131749 0.060016000000000014 0.282708 0.509953 0.95512 -0.277474 -0.107917 -0.257492 0.066904 -0.212341 0.7652209999999999
an -0.6818310000000001 -0.023021999999999994 -0.289347 0.35701700000000003 -0.190787 0.071003 -0.15107199999999998 -0.26034199999999996 -0.273141 0.27409799999999995 0.568439 -0.106221 0.072519 -0.255243 0.146942 0.218272 0.364857 0.06911099999999998 -0.510776 0.515223 -0.879831 0.552215 -0.16668200000000002 -0.225576 0.101476 -0.063575 0.140046 -0.296237 0.426923 0.452672 -0.13287 -0.7857799999999999 0.339042 -0.073391 0.007464999999999999 0.255303 0.06537499999999999 5.544134 -0.108906 -0.015424000000000002 0.041041999999999995 0.052184 -0.698455 -0.530979 0.012229000000000004 1.044976 0.26935400000000004 0.362634 0.07497199999999998 0.273566
was -0.405578 0.031148999999999996 -0.123288 0.14153500000000002 0.9314910000000001 0.07369500000000001 -0.110113 0.31581699999999996 0.150619 0.673659 0.7423770000000001 0.779566 0.219468 -0.579686 0.10428499999999999 -0.157303 -0.022068000000000032 -0.013923000000000019 -0.237989 0.473165 0.315423 0.5930059999999999 0.57599 -0.09009099999999999 -0.13745700000000002 0.391583 0.045426999999999995 -0.350734 -0.37478500000000003 0.46363099999999996 -0.5446070000000001 -0.635894 0.41274 0.084106 0.902733 -0.22882899999999998 0.102991 5.272053 0.05738299999999996 0.205111 -0.5776669999999999 -0.286505 -0.193738 -0.52605 0.449158 0.242569 -0.158909 0.484152 -0.114201 0.439238
we 0.343542 0.184102 -0.049437 0.524963 0.341055 -0.455886 0.252399 -0.14123899999999998 -0.137562 -0.444595 -0.32037099999999996 -0.48858599999999996 0.012161000000000005 -0.515556 0.052689 0.086483 -0.483354 -0.804485 0.580848 -0.15168099999999998 0.217589 -0.33306500000000006 -0.03967100000000001 0.615731 -0.684607 -0.051681 -0.916633 0.8476060000000001 0.47398 -0.723541 0.061331000000000004 -0.06600600000000001 -0.58772 -1.431928 0.073657 -0.421936 0.18090199999999998 5.5641680000000004 0.251683 -0.04371800000000001 0.332579 1.103995 0.610018 1.43454 -1.023126 -0.196968 -0.129605 -0.104667 -0.243824 1.194845
will 0.32200799999999996 0.337783 0.6010869999999999 -0.152 0.101194 -0.6442829999999999 -0.266473 -0.6036050000000001 -0.11434 -0.142594 -0.22591299999999997 0.33728 -0.173898 -0.125378 -0.528108 -0.331642 -0.109947 -0.09378500000000001 0.323719 -0.245953 0.307015 -1.047927 -0.366512 -0.439916 -0.702583 -0.115089 -0.112623 0.632153 0.671693 -0.588271 0.8495240000000001 0.006305000000000005 -0.36491799999999996 -0.5708 -0.471491 -0.37827 -0.37060099999999996 5.724067 0.621703 0.116101 0.485537 0.937615 0.441967 0.21229000000000003 -0.571563 -0.07682699999999998 -0.20512799999999998 -0.231517 -0.311663 0.356485
home -0.072747 -0.675834 -0.452156 -0.057467000000000004 0.33600199999999997 -0.654261 -0.115625 0.5599270000000001 0.708592 0.074875 -0.594381 0.132772 -0.413973 0.599654 -0.222414 -0.398659 0.363939 0.12330200000000001 -0.614406 0.8497939999999999 0.423536 -0.266707 0.528697 -0.14713 -0.282927 0.273101 -0.318125 -0.57331 0.346421 0.25669 -0.173119 0.041325 -0.32428700000000005 0.032398 0.08982400000000001 0.602753 0.6299840000000001 5.006852 0.405856 -0.11789300000000001 -0.402397 0.126194 0.14368599999999998 -0.26990400000000003 -0.454442 -0.5300050000000001 -0.395963 -0.718037 0.184313 0.12222
can 0.144347 0.033838999999999994 -0.055594000000000005 -0.053598999999999994 -0.12363399999999997 0.256709 0.522087 -0.152802 -0.6055349999999999 -1.052125 -0.323289 0.462713 -0.241728 0.14617400000000003 -0.493082 0.37159 -0.345761 -0.447901 0.553275 -0.26264299999999996 -0.005984000000000003 -0.13353199999999998 -0.462721 0.30174 -0.436566 -0.14182999999999998 -0.901993 0.821672 0.493896 -0.182425 0.357077 0.08054800000000004 0.294459 -1.4128159999999998 -0.834849 0.30800400000000006 -0.770187 5.20388 0.252476 0.884272 0.058085 0.730274 0.742114 1.103046 -1.185156 0.48489099999999996 0.24622 0.40176599999999996 -0.11516000000000001 0.31076600000000004
us 0.125529 0.618142 1.0745 0.313113 -0.232673 -0.35348 -0.307788 -0.849897 -0.282104 0.126629 0.43478399999999995 -0.318734 0.48164700000000005 0.20327299999999998 -0.176473 -0.39400599999999997 0.5307 -0.27901699999999996 0.128354 -0.181357 -0.028767 -0.131705 0.390019 0.07574900000000004 0.164182 -0.555361 -0.05724699999999999 0.13756100000000002 0.559221 -1.1248770000000001 0.820085 -0.64073 0.0006659999999999999 -0.095495 0.037091999999999986 -0.457039 0.299873 5.243397 -0.285033 -0.9205869999999999 0.661277 0.47376 -0.284089 0.333362 -0.40619 -1.487937 0.08966800000000003 -0.20658499999999996 0.555179 0.37848499999999996
about 0.675143 0.243067 -0.019854000000000004 -0.501263 -0.521122 -0.109896 -0.27209 -0.10256699999999996 -0.443488 -0.14544800000000002 0.148351 0.102468 0.486023 -0.134282 0.350269 -0.121395 0.362808 -0.821779 -0.323826 -0.30845599999999995 -0.35984099999999997 0.5743 0.303863 -0.175145 0.08037300000000001 -0.187568 -0.087573 -0.126612 -0.058733 0.211316 0.15157500000000002 -0.552886 0.08784800000000001 -0.926974 -0.212837 0.49966900000000003 0.6556280000000001 5.490297 -0.554676 -0.7417549999999999 -0.044523999999999994 0.467782 -0.121918 0.9275720000000001 -0.829384 -0.6198950000000001 -0.628044 -0.295346 0.11254 0.601844
if 0.069865 0.6335299999999999 -0.206174 0.133984 0.362365 -0.689377 0.28247 -0.49417999999999995 -0.576803 -0.390341 -0.053561000000000004 0.356207 0.046258 0.091905 -0.040673 -0.123928 -0.292606 -0.8165789999999999 0.41761899999999996 0.374909 0.316278 0.231216 0.16462300000000002 -0.082785 -0.719984 0.315651 -0.68163 0.587582 0.326857 -0.407884 -0.001316999999999957 -0.30274199999999996 -0.073776 -1.032167 -0.34048 -0.40431 -0.04514299999999999 5.371152 0.014725000000000002 0.170739 0.049454 0.8530089999999999 0.576688 0.65727 -1.248337 0.590614 -0.010222999999999982 0.6133839999999999 -0.043803999999999996 0.849799
page -0.031387 -0.838059 -0.371966 -0.04689499999999999 -0.12186000000000001 0.601153 0.08322099999999999 0.20454499999999998 0.54294 0.922345 -0.546701 -0.135443 0.774498 -0.619902 0.297085 0.298143 0.36004 -1.103032 0.041629 -0.30995300000000003 -0.6718660000000001 0.41721400000000003 -0.039687 1.1676039999999999 0.50337 -0.045201 0.41352300000000003 0.208641 0.012512999999999996 -0.435257 0.09531899999999999 -0.49955000000000005 0.064183 0.08943399999999999 -1.3706779999999998 -0.43252799999999997 -0.544178 3.63715 -0.9111130000000001 -0.181563 -0.977623 0.363118 -0.085615 -0.831251 -0.087345 -0.6509849999999999 -0.46287 0.469459 1.730477 0.030069000000000012
my -1.245474 -0.177505 -1.06825 0.281702 0.9353830000000001 -1.10472 -0.07347499999999998 0.662323 0.026318000000000008 -0.554083 -0.8163750000000001 0.44321900000000003 0.211479 -0.747144 -0.771594 0.515172 -0.701006 -0.754335 1.15994 0.338331 -0.622308 0.35108799999999996 -0.085036 0.567219 0.005532999999999996 0.108567 -0.6813039999999999 0.438635 0.469586 0.08140800000000001 -0.46001400000000003 -0.12385399999999999 -0.803287 -0.680077 -0.28706 0.486394 0.176691 5.033744 0.244754 -0.610522 -0.30067699999999997 0.597315 -0.254899 1.017928 -1.2368709999999998 -0.677234 -0.44415099999999996 0.330218 0.452729 0.846544
has 0.08592600000000002 0.25467700000000004 0.103482 -0.137454 0.178083 0.225966 0.081142 -0.15518599999999994 -0.340225 0.18801900000000005 0.459746 0.154477 -0.006622000000000003 -0.182493 -0.280127 -0.0060290000000000005 -0.0763 -0.142345 -0.305456 -0.485172 0.10119600000000001 -0.195553 0.366125 -1.0482339999999999 0.276189 0.49567300000000003 0.688029 0.055244999999999995 -0.259147 -0.09658399999999999 0.284425 -0.47531599999999996 -0.324774 -0.591468 0.061381000000000005 -0.132107 0.552288 5.563556 0.19049899999999997 0.044618 -0.226965 0.141076 -0.117312 -0.5376080000000001 -0.38971 0.7319530000000001 -0.08699600000000002 0.131577 -0.11146700000000001 0.510105
search 0.18354 -0.5843290000000001 0.308788 0.058141 -0.138083 0.7892170000000001 -0.807722 0.256367 0.184897 0.698996 0.022210999999999998 0.186961 -0.139015 0.226555 0.59384 0.49216499999999996 0.381636 -0.091047 -0.163696 0.41702300000000003 -0.29554199999999997 -0.552437 -1.477377 -0.343319 -0.31851199999999996 -0.6083099999999999 -0.410718 -0.139633 0.915509 -0.20530199999999998 -0.495027 -0.38243 -0.035221999999999996 -1.135291 -0.024863999999999997 0.722471 -0.159057 3.821694 0.202791 -0.300622 -0.44555200000000006 0.356447 0.384719 -0.019058000000000002 -0.499854 -0.322671 0.517996 0.157014 0.529811 0.16500399999999998
free -0.455947 -0.132352 0.15087099999999998 -0.232125 -0.011750999999999998 0.017041 0.433635 -0.9954799999999999 0.667734 0.387071 -0.9219200000000001 -0.154236 -0.23382999999999998 0.243228 -0.21892899999999998 0.5727340000000001 0.331629 0.571034 0.026341999999999997 0.5679810000000001 0.120804 -0.130906 0.055965 0.134556 -0.023795000000000004 -0.43367100000000003 -0.9186030000000001 0.136884 0.253622 -0.10407 0.177184 -0.19368 -0.6408119999999999 0.24735200000000002 -0.339402 -0.049846 -0.103365 4.628016000000001 0.09131600000000001 0.562376 -0.256622 0.472707 0.159328 0.424483 -0.5190400000000001 0.712094 -0.025598999999999983 -0.141886 0.487012 -0.172692
but 0.167793 0.081517 -0.143882 0.04721899999999998 0.306391 -0.26562600000000003 -0.204536 0.011932000000000054 -0.245225 -0.327784 0.050117999999999996 0.243433 0.419883 -0.327474 0.158642 0.039527999999999994 -0.023405999999999982 -0.353414 -0.081289 0.22883699999999996 0.242167 0.14422399999999996 0.419189 -0.12249600000000001 0.034161 0.29690099999999997 -0.0442 0.326943 0.17749 -0.32938 -0.13137899999999997 -0.016958999999999995 -0.198607 -0.7497100000000001 0.5341739999999999 -0.15057399999999999 0.263781 5.658999 0.209717 0.050826 -0.21804900000000002 0.516014 0.413349 0.533134 -0.555648 0.5837300000000001 -0.136897 0.257015 -0.143447 0.643752
our -0.24719300000000002 0.097205 -0.316387 0.7129639999999999 0.499364 -0.41546700000000003 0.096263 -0.296333 0.288056 -0.522718 0.049648 -0.519355 -0.222938 -0.21357900000000002 0.299707 0.205687 -0.581579 -0.419719 0.931311 -0.12969599999999998 -0.785123 -0.865533 -0.614058 0.571497 -0.217259 0.033574999999999994 -0.402111 0.5822849999999999 1.042437 -0.762641 0.20363599999999998 0.23258 -1.03244 -1.001117 -0.012797000000000001 0.207444 0.414096 5.113587 0.761603 -0.258399 0.644037 0.197137 0.242924 1.356948 -0.86231 -0.286814 -0.294306 0.12289 0.265449 0.405783
one -0.216777 -0.62917 -0.5143530000000001 -0.166082 -0.201759 -0.18498199999999998 -0.101913 0.16760500000000006 0.05521699999999999 -0.267614 0.110529 -0.281829 0.332033 -0.054178000000000004 -0.26956 -0.020872999999999996 0.415336 -0.11688599999999999 -0.231562 0.311374 -0.165981 0.115877 0.17082399999999998 0.005010999999999998 -0.286273 0.333837 0.044693 0.020981 -0.025280000000000004 0.189743 -0.106153 -0.20036 0.127904 -0.45497400000000005 -0.205895 0.13710499999999998 -0.06268299999999999 5.579556 0.254305 -0.015518000000000004 -0.31491600000000003 -0.033547 0.010901999999999995 0.05080699999999999 -0.14087999999999998 0.115615 0.12281100000000003 0.460693 0.069895 0.504061
other 0.539339 -0.8106610000000001 0.406115 -0.5388 -0.503244 0.484294 0.245644 0.04644500000000007 0.161988 -0.537227 0.10511499999999999 -0.42608999999999997 0.244841 0.515587 0.293092 0.421756 0.12962100000000001 0.433449 -0.019975 -1.166546 0.296282 -0.06519399999999997 -0.23479499999999998 -0.285721 -0.03446199999999999 0.230545 -0.18384899999999998 0.19921499999999998 0.04897 -0.265734 0.595662 0.387547 0.39965100000000003 -0.7886219999999999 -0.324212 0.8509329999999999 -0.256226 5.390898 0.35160199999999997 0.088447 0.318977 -0.39605999999999997 0.32016300000000003 0.626324 0.01543 0.353682 0.07356099999999999 0.349468 0.123077 -0.03364600000000001
do 0.008693 0.613585 0.061831 0.17755300000000002 -0.347787 -0.455386 0.507643 0.10982599999999998 -0.04436 -0.625096 -0.901779 -0.341601 -0.371981 -0.03229000000000001 0.090458 0.507466 -0.959058 -0.6697 0.91703 -0.524027 0.241166 0.47585399999999994 -0.178639 0.6938789999999999 -0.9044559999999999 -0.11635700000000002 -1.281636 1.196068 0.177823 -0.595355 0.10908899999999999 0.672637 -0.194824 -0.999026 -0.44018 0.05538400000000001 -0.265293 5.262674 0.565083 -0.08762 -0.012387999999999996 0.838503 0.8043800000000001 1.18754 -1.0984660000000002 -0.296427 0.06590600000000002 0.03154499999999999 -0.44797699999999996 1.152337
no 0.100175 0.379321 -0.779733 0.33950199999999997 -0.026795999999999986 -0.416804 0.238844 -0.43606 -0.407351 -0.08446199999999998 0.109538 0.019701999999999997 0.112408 -0.21452700000000002 0.494056 0.881756 -0.29154199999999997 -0.462916 0.10924400000000001 0.012882000000000001 -0.048889 0.224476 0.37959299999999996 0.344411 -0.291273 0.599529 -0.77373 0.808844 0.26325299999999996 -0.374661 -0.18760500000000002 -0.192943 -0.049595 -0.7056560000000001 -0.52759 -0.404779 -0.17388599999999999 5.276768000000001 -0.32794599999999996 -0.231103 0.148203 0.11431999999999999 -0.39648 0.808415 -0.384509 0.026201000000000002 0.38448699999999997 0.7363949999999999 0.06778700000000001 0.981928
information 0.665142 -0.160684 -0.054888 0.708799 -0.44579100000000005 0.714799 -0.449154 -0.432552 -0.013219999999999996 1.32207 -0.133922 0.250608 -0.7977160000000001 0.335928 0.7370479999999999 0.867846 0.440457 -0.098859 -0.130207 -1.3375 -0.684064 0.048158 -1.391642 0.41794299999999995 0.200164 0.141402 -0.018422 -0.045421 0.921379 -0.871715 0.40819 -1.0472 0.648324 -0.553279 -0.14486 0.49179100000000003 -0.310462 4.538785 0.006225 0.363004 -0.661094 0.554792 0.155151 0.322034 -0.980718 -0.104109 0.35622200000000004 0.521803 1.1206559999999999 0.005239000000000021
time 0.273654 -0.08782100000000001 -0.337291 -0.38662799999999997 -0.106799 -0.4944 -0.596372 0.213497 0.09957400000000001 0.175313 -0.047396999999999995 0.09082 -0.067382 -0.8557669999999999 -0.235765 -0.405906 0.394086 -0.33325000000000005 0.680721 0.537232 0.147831 -0.08713399999999999 0.314855 0.176841 -0.37238 -0.443307 -0.674194 -0.29638600000000004 -0.00615099999999999 0.26654 -0.13835500000000003 -0.14974300000000001 -0.108289 -0.308294 0.13558199999999998 -0.178748 -0.298533 5.3498280000000005 0.14377099999999998 0.13263000000000003 -0.536079 0.46854399999999996 0.411473 0.597746 -0.237628 0.07100899999999999 0.148959 -0.036180000000000004 -0.002817 -0.06011399999999999
they 0.235115 -0.662995 0.419022 -0.03931900000000001 0.217393 0.048608000000000005 0.258917 0.16526999999999997 0.012298000000000003 -0.5199280000000001 -0.184495 0.198435 0.18289899999999998 0.0031840000000000063 0.309955 0.215942 -0.20149299999999998 -0.37716199999999994 0.351856 -0.23652700000000002 0.735976 0.25441400000000003 0.053117 0.08705299999999999 -0.657787 0.387023 -0.833813 0.37411 0.027660999999999998 -0.203895 -0.243939 0.11259999999999999 0.03822400000000001 -1.101674 0.30638699999999996 0.237132 0.06346000000000002 5.75783 0.21872799999999998 -0.06489699999999998 0.261451 0.321119 0.835758 1.062718 -0.5852090000000001 0.021345 -0.421964 0.307106 -0.109959 0.512991
site 0.32443599999999995 -0.377604 -0.04035999999999999 -0.177941 0.586089 1.094417 0.29392399999999996 0.67866 0.346739 0.908594 -0.166597 -0.228153 -0.491191 0.242153 0.699938 0.458696 0.16171000000000002 -0.011489 -1.338193 -0.307181 -0.150441 -0.8172170000000001 -1.598729 0.776595 -0.6631100000000001 0.747459 -0.407818 -0.984587 0.106019 0.856845 -0.175084 -0.24509799999999998 -0.09994199999999999 -0.7776989999999999 -0.514222 0.010994000000000004 -0.153655 4.282864 -0.7772060000000001 0.567731 -0.39019899999999996 0.302709 -0.039487999999999995 -0.560832 -0.16144 -0.539826 0.5625610000000001 -0.134711 0.7646299999999999 -0.028904
he -0.221839 -0.091472 -0.094071 0.258989 0.45597499999999996 -0.436485 -0.19977899999999998 0.532618 0.09454099999999999 0.2874360000000001 0.033144000000000035 0.21062 0.258367 -1.081508 -0.009883000000000003 -0.44306 -0.162638 -0.275787 0.581272 0.254751 0.18662499999999999 1.011676 0.618282 0.105488 -0.483912 0.442019 -0.6087370000000001 0.009051999999999998 -0.306852 0.35296 -0.661972 -0.6165080000000001 0.09507200000000002 -0.045942 0.805929 0.05179599999999998 0.44674200000000003 5.765981 0.41730900000000004 -0.283136 -0.7249089999999999 -0.103371 0.188743 0.11721400000000001 -0.41512899999999997 0.6275550000000001 -0.657974 0.095923 -0.05490500000000001 0.314251
up -0.3375 -0.801921 0.148387 0.0063439999999999885 -0.452195 0.072438 -0.289261 -0.438027 -0.026867000000000002 -0.114514 -0.459077 0.479552 0.252812 0.618163 -0.34580700000000003 -0.34238599999999997 0.138094 -0.24306100000000003 -0.029069000000000005 0.377837 0.5941019999999999 -0.03304299999999999 0.527338 -0.143648 -0.139374 -0.463506 -0.033106 -0.12320999999999999 0.206079 0.345753 0.123144 -0.277363 -0.561496 -0.112536 0.21473799999999998 -0.16798599999999997 0.184979 5.543162000000001 0.002823999999999993 -0.739934 -0.37680199999999997 0.65783 -0.12785699999999997 1.020254 0.03529099999999999 -0.41787 -0.5165660000000001 -0.38444 -0.168589 0.019375
may 0.318535 0.438544 0.024300999999999996 -0.50188 0.194489 0.011473 0.08784700000000001 0.08454299999999998 -0.274609 -0.10926599999999997 0.626504 0.9528369999999999 -0.032475 -0.11011 0.23077 -0.16153499999999998 -0.290375 -0.261811 0.395142 -0.170047 0.34592 0.489308 0.157255 0.187476 -0.076058 0.020099 -0.885962 0.289514 0.164131 0.34362400000000004 -0.24863300000000002 0.165222 0.628607 -0.402377 -0.11692799999999999 -0.017248999999999994 -0.509518 5.0893239999999995 -0.02066499999999999 0.692608 0.40571500000000005 0.504315 0.603674 0.100234 -0.050702 0.137523 0.037843000000000016 0.269137 0.01049399999999999 -0.167782
what 0.178714 0.730727 -0.216738 0.165632 0.29946 -0.411321 0.044932 0.394915 -0.316659 -0.182819 -0.340522 -0.332864 0.514931 -0.363656 0.470395 -0.006842000000000001 -0.252732 -0.963865 0.076207 -0.358464 -0.330958 0.162519 -0.08091100000000001 0.602826 -0.201251 0.108267 -0.442398 0.607572 0.264214 -0.43056 -0.064779 -0.05962300000000001 -0.477666 -1.092863 -0.150747 0.145378 0.544288 5.294619000000001 0.078591 0.009513999999999995 -0.096939 0.6702520000000001 0.379895 0.7084239999999999 -0.9201239999999999 0.199922 0.108556 0.386563 -0.010029999999999997 0.7483369999999999
which -0.183011 -0.105664 0.183611 -0.214771 -0.047779000000000016 0.487235 0.614613 -0.29983199999999993 -0.36581 0.017054000000000014 0.639659 0.25441 -0.060559 0.188577 0.30256299999999997 -0.328755 -0.00028000000000000247 0.121747 -0.089168 -0.41360299999999994 -0.090615 -0.15244100000000002 -0.36892600000000003 -0.371347 -0.004865000000000008 0.13654 0.006389000000000001 0.220263 -0.20425700000000002 0.424319 -0.06058199999999997 0.073485 -0.02379400000000001 -0.537319 -0.362202 -0.227708 -0.07930800000000002 5.5725180000000005 -0.340576 0.207868 -0.06517200000000001 -0.240793 0.06704700000000001 -0.10735299999999998 0.353499 0.128213 0.02277600000000002 0.14533200000000002 0.23902 0.09272300000000001
their -0.11574200000000001 -0.997768 0.334836 -0.005655999999999994 0.06383 -0.264749 0.237572 -0.037417000000000034 0.536404 -0.441955 -0.050779000000000005 0.338163 0.28101699999999996 0.007391000000000009 0.342228 0.333444 0.06013099999999999 0.272008 0.990275 -0.13590600000000003 0.12791999999999998 -0.37039500000000003 -0.235906 -0.27751400000000004 -0.217116 0.377389 -0.576365 0.297843 0.453109 -0.23247500000000001 -0.190267 0.43497600000000003 -0.557414 -0.850911 0.003581000000000001 0.373314 0.20120700000000002 5.787473 0.545576 -0.331559 0.37952199999999997 0.007535 0.6515960000000001 1.080157 -0.269784 0.098943 -0.694257 0.375322 0.06454199999999999 -0.23333
news 0.25086600000000003 -0.262198 0.07869799999999999 0.200659 0.310672 -0.46972400000000003 -1.127368 0.343736 -0.629376 1.037012 -0.143459 0.068592 -0.316377 -0.227985 1.128142 0.638874 0.15767 -1.088754 -0.198033 -1.49105 -0.090724 0.119167 0.21424100000000001 0.286843 0.090196 -0.066775 0.364867 -0.482201 -0.170239 -0.47164 0.8655139999999999 -0.298032 -0.089345 0.574546 0.181792 0.15935 -0.312403 4.90474 -0.693351 -0.500452 0.396675 0.960578 -0.066837 -0.903165 -0.69751 -0.501018 0.799493 -0.609374 1.300996 0.087916
out -0.156576 -0.9685280000000001 0.132631 -0.062157000000000004 -0.04047400000000001 -0.029148 0.148253 -0.030905000000000016 0.014243000000000006 -0.25124199999999997 -0.521022 -0.062543 0.443512 0.291165 0.134778 -0.04328 0.008029999999999982 -0.43614 0.097235 0.657315 0.6491659999999999 -0.24726399999999998 0.49845500000000004 -0.122623 -0.015488000000000002 -0.004505999999999996 -0.054825000000000006 0.565044 0.011738000000000005 -0.011224999999999999 -0.398659 -0.536052 -0.5608200000000001 -0.5369729999999999 0.445168 -0.24456 0.0045000000000000005 5.447235 0.0071129999999999804 -0.449322 -0.536289 0.647518 -0.07537999999999999 0.76151 -0.509577 -0.09151700000000002 -0.355589 -0.08435000000000001 0.04339699999999999 0.444737
use 0.05482699999999999 -0.40052299999999996 0.789194 -0.20574599999999998 -0.31994100000000003 0.515085 0.83683 -0.5424709999999999 -0.31366 -0.652792 -0.561918 0.545557 0.024400999999999992 0.28364300000000003 0.426952 0.599948 -0.598579 0.380716 0.256401 -0.309702 -0.561945 0.090842 -1.0483829999999998 0.252638 0.096963 -0.282937 -1.104438 0.160987 0.474796 -0.48481300000000005 0.311079 -0.196714 0.345249 -0.579789 -0.494436 0.398764 -0.723951 4.909713999999999 -0.232899 0.443547 -0.553607 -0.354312 0.103447 0.595174 -0.31253499999999995 0.778807 0.06373399999999999 0.588074 0.12590099999999999 0.014635
any 0.359363 0.347557 -0.189875 0.262936 -0.03505 -0.327597 0.136792 -0.581125 -0.457909 -0.325117 0.402879 0.023566000000000004 0.388872 0.07453100000000001 0.773369 0.482491 0.019395999999999997 -0.16216499999999998 0.208865 -0.25794 -0.326187 -0.21025100000000002 -0.27598100000000003 0.034741999999999995 -0.510579 0.5686979999999999 -0.808314 0.36419500000000005 0.746058 -0.58807 -0.039431 -0.33321 0.119182 -0.761622 -0.605632 -0.260984 -0.103513 5.270711 -0.013393000000000002 0.02223499999999999 0.11032200000000003 0.537591 0.29335100000000003 0.882738 -0.6878230000000001 0.9950600000000001 0.175393 0.9033690000000001 0.242864 0.333464
there 0.810346 -0.343067 -0.59551 -0.045717999999999995 -0.109703 0.029606 0.24624000000000001 0.07242399999999999 -0.065108 -0.363924 0.38056999999999996 -0.079129 0.284908 -0.423774 0.401177 0.38082400000000005 0.05113699999999999 -0.345878 -0.399278 -0.169322 0.084486 0.031258999999999995 0.21927500000000003 0.245075 -0.15891000000000002 0.254712 -0.448021 0.089628 -0.094497 0.136928 -0.161948 -0.26663400000000004 0.323269 -1.121354 -0.360245 0.11703799999999999 0.16225799999999999 5.288082 -0.40931500000000004 0.151857 0.356549 0.241298 0.329926 0.802952 -0.288088 -0.178617 -0.288877 -0.006538999999999996 -0.12719200000000003 0.404154
see -0.031743999999999994 0.6596660000000001 -0.331131 0.10658899999999999 -0.290994 -0.974591 0.294405 0.558612 0.312851 -0.602167 -0.455577 0.273506 0.09513999999999999 -0.294828 -0.144164 0.36587 -0.24956899999999999 -0.406856 -0.02280399999999999 -0.340317 0.304461 0.19463999999999998 -0.38382 0.535273 0.11567299999999998 -0.32522799999999996 -0.47215 0.551021 0.11606899999999999 -0.249618 0.05429200000000001 0.209818 -0.38621099999999997 -0.789968 -0.325681 -0.0025210000000000232 0.09319200000000001 4.80409 0.047765 0.36213 0.754506 1.092831 0.43307700000000005 0.667889 -0.507495 -0.580516 0.353434 0.001344999999999999 0.014145999999999999 0.249089
only 0.171007 -0.317631 -0.36194000000000004 -0.457889 -0.135093 -0.08838900000000001 0.114553 -0.46317300000000006 0.07973699999999999 -0.18661500000000003 0.378861 0.220254 0.231689 -0.204963 -0.16977699999999998 0.00746 0.335269 -0.03184100000000001 0.039748 0.40576999999999996 -0.015376 -0.006597000000000006 0.471045 -0.08408299999999999 -0.30381800000000003 0.35751 -0.354675 0.04908 -0.024348 -0.12439599999999999 0.015420000000000017 -0.037693000000000004 0.09937200000000002 -0.533995 -0.159891 -0.236566 -0.169465 5.325101999999999 0.09895599999999999 0.373647 -0.30220199999999997 0.029382000000000005 0.573924 0.412499 -0.433598 0.025479 -0.24555400000000002 0.528259 -0.05259599999999999 0.467916
so -0.012952999999999992 -0.121902 -0.145956 0.291651 0.219348 -0.009388 0.260281 -0.053674 -0.280247 -0.662436 -0.384169 0.019234 0.28535499999999997 -0.417265 0.167521 0.138757 -0.518606 -0.8071250000000001 0.184915 0.206978 0.059815 0.002014000000000002 0.318404 -0.18853599999999998 -0.09815499999999999 0.170488 -0.454307 0.42982200000000004 0.171633 -0.334163 -0.057821999999999985 0.11608800000000001 -0.137669 -1.094783 0.158186 0.211017 0.409967 5.267186000000001 0.073564 0.176898 -0.15662500000000001 0.397179 0.7082820000000001 1.077138 -0.583868 0.014563 -0.05699700000000002 0.465296 0.005474 0.954732
his -0.7912239999999999 -0.212752 -0.31193 0.23500300000000002 0.601276 -0.781638 -0.602722 0.708649 0.271737 0.14033100000000004 0.058218999999999965 0.440672 0.9598580000000001 -1.076056 -0.018269000000000007 -0.068081 0.02205299999999999 0.07491499999999995 0.704102 0.688766 -0.11482699999999998 0.622173 0.136491 0.03086300000000001 0.10350499999999999 0.388142 -0.033424999999999996 0.282607 0.047917999999999995 0.381079 -0.7318450000000001 -0.44876099999999997 -0.19296599999999997 -0.058791 0.5792889999999999 0.341421 0.675682 5.579162999999999 0.77441 -0.41481999999999997 -0.989449 0.130806 -0.271018 0.135342 -0.226947 0.940563 -0.765811 0.412418 0.272738 -0.017600000000000005
when -0.054494 -0.16575600000000001 -0.004334 -0.12032300000000001 0.7419560000000001 -0.491157 -0.33076099999999997 0.42681099999999994 -0.099465 -0.08762500000000001 0.10686499999999999 0.686731 0.35775 -0.243205 0.057002 -0.258243 0.053258 -0.395258 0.133559 0.613581 0.615352 0.215701 0.6255809999999999 -0.029535000000000006 -0.22050699999999998 -0.091463 -0.43555 0.275656 -0.303184 0.308192 -0.47882199999999997 -0.586489 -0.15734 -0.513746 0.728751 0.14919 -0.08751900000000001 5.392224000000001 0.127115 0.03416 -0.48136100000000004 0.475738 0.192951 0.178642 -0.42547 0.204376 -0.268544 0.027467999999999992 -0.120914 0.192503
contact 0.179823 -0.40802499999999997 -0.209563 0.252255 0.11084599999999999 0.509254 -0.974012 -0.34366399999999997 -0.565162 0.13678600000000002 0.36297 0.21733000000000002 -0.09856899999999999 0.27925500000000003 -0.207693 0.765487 0.398815 -0.05326399999999998 0.039226 -0.506721 0.621488 0.166527 -0.298489 0.556628 -0.238275 -0.600077 -0.979307 0.375088 0.549639 -0.339283 -0.08538699999999999 -0.589913 0.375662 -0.681814 0.037333000000000005 0.638674 -0.7963089999999999 3.531805 -0.040522 0.119817 0.352305 0.126281 0.032282000000000005 0.263946 -1.029575 0.43949800000000006 0.036196 -0.210726 0.812601 -0.504171
here 0.432231 -0.120909 -0.6325160000000001 -0.028174000000000005 0.230678 -0.39618 -0.807578 0.38277500000000003 0.081676 -0.45927300000000004 0.006947 -0.6923170000000001 -0.034387 -1.111996 -0.259497 -0.173366 -0.112991 -0.04223199999999999 -0.419999 -0.53973 0.225554 -0.529162 -0.10164400000000001 0.009353 -0.5117970000000001 0.047428 -0.451609 -0.040855 -0.348151 -0.39493 0.238351 -0.469429 -0.0369 0.007114999999999996 -0.091697 -0.315409 0.439273 4.983322 0.102864 -0.20413599999999998 0.5063340000000001 0.942244 0.074569 0.527907 -0.190545 -0.160019 -0.185469 -0.418875 0.13061699999999998 0.698364
business 0.032077999999999995 0.425261 -0.149358 0.7215590000000001 -0.25482499999999997 -0.15711 0.06812 -0.292351 -0.316098 0.659905 -0.788489 -0.156765 -0.342332 0.626172 0.09101199999999998 -0.631603 -0.9725750000000001 -0.527819 0.181564 -1.4320979999999999 -0.166714 -0.202278 -0.07538600000000001 -0.28690099999999996 0.08387599999999999 -0.319806 -0.237145 -1.110023 1.1086580000000001 -0.261353 1.047368 0.14198499999999997 -0.09548999999999999 0.035139000000000004 0.224305 0.787466 0.316439 4.957998 0.673178 -0.19224199999999997 -0.45212699999999995 -0.350865 0.010404 0.0858 0.678365 0.106551 0.333258 -0.49584700000000004 0.678886 -0.035993000000000004
who -0.37620600000000004 -0.068844 0.27514099999999997 -0.402691 0.310106 -0.44353200000000004 -0.498166 0.495974 0.736144 -0.02672100000000005 0.07170499999999999 -0.6036 0.544308 -0.13449500000000003 -0.571569 0.24277500000000002 0.366762 -0.144116 0.105772 0.214157 1.044871 0.983998 0.62557 -0.184863 -0.412169 0.025042000000000002 0.24404900000000002 -0.086034 -0.025486 -0.289277 0.281821 -0.658398 0.09506499999999998 -0.258131 0.89911 0.92687 0.575478 5.336474 1.204132 -0.249647 -0.424016 -0.11221600000000001 -0.054343 0.243276 -1.028521 0.549336 -0.642051 0.554669 -0.22421 0.676133
web -0.328895 -0.8169230000000001 0.211044 -0.244891 -0.549785 0.8312120000000001 0.038533000000000005 0.345873 0.36016699999999996 0.905227 -0.7201390000000001 -0.043864 -0.580435 0.462917 0.546401 0.9036 0.13655899999999999 -0.875258 0.025967999999999998 -1.086728 -0.45625099999999996 -0.41448 -1.00423 0.288316 -0.097856 -0.509415 -0.031436 -0.808246 0.530927 -0.394231 0.684504 -0.200261 -0.762992 -0.6421749999999999 -1.03857 0.524329 -0.33064099999999996 3.880068 0.07691500000000001 -0.124282 -1.2000600000000001 0.873353 0.281453 -0.5148699999999999 -0.614745 0.161135 0.6230990000000001 0.18388100000000002 1.800257 0.127226
also 0.241207 -0.212828 0.225918 -0.176716 0.23266299999999998 0.336771 0.095605 0.09922999999999993 -0.08387700000000001 0.11971599999999999 0.30004 0.131061 -0.102469 -0.292045 -0.222225 0.438743 0.009400999999999993 0.306645 0.073492 -0.685053 0.21768600000000002 0.29163700000000004 -0.149059 -0.196229 -0.068041 0.302485 0.38384 0.323211 -0.139643 -0.100697 0.280968 -0.033173 0.03862200000000002 -0.126093 0.088589 0.22867 -0.20138999999999999 5.272799 0.165367 0.37712599999999996 -0.156814 -0.09469000000000001 0.202708 -0.27122799999999997 0.245 0.602435 -0.08194100000000004 0.09131600000000001 0.056132 0.132613
now 0.14554099999999998 0.236915 0.001901 0.196668 0.14852300000000002 -0.135984 0.35896300000000003 -0.010770000000000002 0.063432 -0.03613400000000003 -0.054938999999999995 -0.0051190000000000055 -0.250809 -0.007029999999999995 -0.338599 -0.54651 -0.437515 -0.438349 -0.013926999999999998 -0.10025600000000001 0.288618 0.02685 0.139911 -0.327276 -0.199417 0.205602 -0.269335 -0.309889 -0.06690499999999999 0.06254900000000001 0.23596099999999998 -0.055068 -0.250861 -0.673492 0.055976 -0.07239999999999999 0.598371 5.1715029999999995 0.19398200000000002 0.23507 -0.076766 -0.140331 0.544011 0.09271099999999999 -0.606398 -0.43251 -0.18368099999999998 -0.095136 -0.051578000000000006 0.459899
help -0.03225499999999999 -0.058111 0.735416 -0.051832 0.083016 -0.217152 -0.06788000000000001 -0.327758 0.242626 -0.016102000000000005 0.045856999999999995 -0.088741 -0.122414 0.668496 0.042251000000000004 -0.017032999999999993 -0.470422 0.291705 0.7495909999999999 -0.124698 0.135059 -0.283405 -0.606269 -0.07058 -0.16347700000000004 -0.41496999999999995 -0.374217 0.959042 1.406511 -0.143687 0.48604 0.04372899999999996 -0.177751 -0.425971 -0.022764 0.698782 0.263133 4.9632570000000005 1.160381 0.006214999999999998 0.019688999999999998 0.56569 0.37268900000000005 0.6939569999999999 -1.172364 -0.428161 -0.540452 -0.441979 -0.416512 -0.180616
get -0.189232 -0.347041 0.049146 0.202314 0.179711 -0.6633359999999999 0.21407700000000002 -0.18401700000000001 -0.135042 -0.326038 -1.0168629999999999 0.010902 0.23719400000000002 0.133128 -0.291896 0.338559 -0.322256 -0.8278080000000001 0.671594 0.33820100000000003 0.26074400000000003 -0.04584 0.654566 -0.286435 -0.5682480000000001 0.075096 -0.720113 0.319782 0.607915 -0.252383 0.03262599999999999 -0.069711 -0.3115 -0.771009 -0.209838 0.19943599999999997 -0.077575 5.097376000000001 0.353394 -0.367289 -0.464584 0.836506 0.6036009999999999 0.938247 -1.261544 -0.26535600000000004 -0.368775 -0.046307999999999995 -0.259028 0.809366
view -0.302927 0.6785950000000001 0.040691000000000005 0.395998 -0.552415 0.382689 -0.0008849999999999969 -0.059225999999999994 -0.006813 -0.46406899999999995 0.179963 0.015921 -0.228303 -0.919412 0.526019 0.310268 -0.24551099999999998 -0.780349 -0.660096 -0.108812 -0.30514399999999997 -0.11455400000000002 -0.619437 0.6718109999999999 -0.027691999999999994 0.21250999999999998 0.18961899999999998 -0.38248499999999996 0.259937 -0.402723 -0.12335700000000002 0.48603 -0.8218920000000001 -0.823009 -0.064803 -0.03926299999999999 0.944861 4.060217 -0.30566899999999997 0.181858 0.432553 0.138802 0.644929 0.42641700000000005 0.176313 0.345466 -0.20811400000000002 0.46636900000000003 0.674302 -0.095829
online -0.160494 -0.331492 0.177728 -0.42143200000000003 -0.544975 0.48706900000000003 0.173728 0.15243700000000002 0.201783 1.233562 -0.5549810000000001 -0.090612 -1.174056 0.355653 0.42339 0.457604 0.382892 -0.600198 0.772821 -1.4498980000000001 -0.484939 -0.202018 -0.49004899999999996 -0.030809 -0.08808400000000001 -0.3 -0.495591 -1.3078889999999999 0.753186 -0.384173 0.490795 0.101976 -0.485915 -0.452701 -0.801809 0.884545 -0.402427 3.957419 -0.010370000000000004 -0.363847 -1.422139 1.0276779999999999 0.823517 -0.133798 0.19246200000000002 0.052132 0.385494 -0.131607 2.194827 -0.168806
c 0.186172 -0.254125 0.509857 -0.156836 -0.759516 0.366578 -0.014972 -0.8955420000000001 -0.708309 -0.126788 0.509034 0.598901 -0.917316 0.358435 -1.497773 0.356057 1.350581 0.308245 -0.046173000000000006 0.413155 0.12114599999999999 0.270996 1.257054 1.44003 0.35407 0.083182 0.397378 0.68659 0.482035 -0.20709500000000003 -0.014242999999999999 0.441457 0.8573919999999999 -0.242701 0.136596 -1.0355509999999999 -1.886884 3.344456 -0.037215 1.173056 -0.6458090000000001 -0.527945 -1.136136 -0.286379 1.375817 0.036945 0.12110800000000001 -0.772537 0.958081 0.60973
first -0.267171 -0.588025 -0.271759 -0.7013769999999999 0.250303 -0.118616 -0.380156 0.20302399999999998 0.476586 0.644952 0.21376 0.20779999999999998 0.419549 -0.749309 -0.390078 -0.60587 0.513683 0.195766 0.061683 0.473237 -0.286792 -0.057047000000000014 0.551183 -0.142129 -0.20483099999999999 -0.007463999999999998 -0.28656400000000004 -0.053258 -0.254232 0.355252 -0.38637900000000003 0.042582999999999996 -0.064022 0.227281 -0.008333 -0.38009400000000004 -0.49711500000000003 5.360785 0.356795 0.196884 -0.478089 -0.069025 0.21943499999999996 -0.625954 0.47087 0.15418099999999998 0.16461800000000001 0.286598 -0.027386 -0.156918
am -0.19663 0.14281899999999997 -0.146342 0.13621699999999998 0.07428699999999999 -1.327191 -0.26138700000000004 0.329401 -0.218115 -0.6270990000000001 0.126682 -0.112705 -1.2667950000000001 -1.87181 0.406311 -0.308453 0.066696 -1.329817 0.0009030000000000149 0.136153 0.486324 0.831333 0.647134 0.739422 -1.0872600000000001 -1.121801 -1.140694 -0.444203 0.218274 0.214814 0.429219 -0.288163 0.273401 -0.692877 0.507115 -0.8278989999999999 -0.580349 3.795052 -1.006103 0.449386 0.342244 0.42209 0.080852 0.509001 -1.002903 -1.05094 0.5082800000000001 -0.30091799999999996 0.9547540000000001 1.606716
been 0.385069 -0.49084700000000003 0.284207 -0.061667 0.446197 0.510544 0.40454999999999997 0.09007799999999999 0.024772000000000002 0.21332999999999996 0.555115 0.121723 0.264227 -0.367795 0.569028 0.22199300000000002 -0.18715299999999999 -0.022959000000000007 -0.261957 -0.440656 0.665673 -0.109795 0.428833 -0.8969689999999999 0.12215900000000002 0.748362 -0.09736199999999999 -0.076045 -0.268216 0.013752 -0.22241 -0.51656 0.368141 -0.9837400000000001 0.718557 0.22567500000000001 0.369656 5.461606 0.05747200000000002 0.053968 -0.06581200000000001 0.068166 0.33880699999999997 0.019818999999999976 -0.341842 0.390958 -0.00931800000000002 0.446411 0.008466000000000001 0.6978679999999999
would 0.269422 0.534585 0.831174 -0.019094000000000007 0.405978 -0.7026570000000001 0.248152 -0.609371 -0.247626 0.04248200000000002 0.16323000000000004 0.290843 0.182883 0.021810999999999997 0.21315699999999999 -0.040513999999999994 -0.448471 -0.40438399999999997 0.35168900000000003 -0.046737 0.5871850000000001 -0.277795 -0.262429 -0.230512 -0.789123 0.186537 -0.327287 0.533018 0.5410630000000001 -0.415312 0.402404 -0.14204899999999998 -0.18369600000000003 -0.634698 -0.23346699999999998 -0.382362 -0.216171 5.571148 0.335203 0.209002 0.246977 0.612649 0.5505720000000001 0.289798 -0.44608099999999995 0.240771 -0.219786 0.339865 -0.321251 0.459975
how 0.30568 0.202604 -0.11077600000000001 0.05476 0.024280999999999997 0.015991 -0.09712000000000001 0.259427 -0.31138299999999997 -0.226958 -0.433988 -0.214975 0.199497 -0.393027 0.191166 0.094387 -0.481404 -1.057121 0.345581 -0.449394 -0.26487499999999997 0.260977 -0.07178199999999998 0.35765800000000003 -0.138038 -0.071276 -0.467167 0.923631 0.7025049999999999 -0.5486489999999999 0.08462999999999998 -0.014301000000000008 -0.26406799999999997 -1.285132 0.049043 0.662833 0.418838 4.978301 0.333589 0.11909600000000001 -0.05545599999999999 0.591182 0.625293 1.011687 -0.94177 -0.011163 0.072906 0.47084899999999996 0.042512 0.67835
were 0.6796500000000001 -1.6311200000000001 0.599326 -0.426489 -0.06447800000000004 0.47568299999999997 0.43872300000000003 -0.012338000000000071 0.552265 -0.046213000000000004 0.38768199999999997 0.278606 0.34233199999999997 -0.027747999999999995 0.887607 0.44196 0.45052099999999995 0.35488200000000003 -0.315327 -0.534637 1.292766 -0.00038699999999999846 0.652762 -0.273604 -0.22283799999999998 0.684931 -0.083773 -0.103043 -0.473206 -0.161639 0.134485 -0.03790500000000002 0.7839240000000001 -0.81806 0.6487 0.358826 -0.155282 5.311517 -0.27233299999999994 -0.215167 0.170141 -0.427003 0.558711 0.658748 0.27239800000000003 -0.618352 -0.584511 0.538987 -0.279865 0.315425
me -0.909693 0.375672 -0.465021 0.556257 0.874025 -0.690499 0.053452 0.611707 -0.337122 -0.574424 -0.702656 -0.348986 0.20288099999999998 -0.688599 -0.430013 0.552993 -0.201023 -1.0744120000000001 0.926172 0.237299 0.10539699999999999 0.712827 0.7168559999999999 0.854802 -0.742505 -0.192514 -0.818798 1.151915 0.016328999999999996 -0.461389 -0.276953 -0.13053 -0.556468 -0.787685 -0.189707 0.035243 0.082863 4.567121 0.055921 -0.6102270000000001 -0.639484 0.8909860000000001 -0.035107 1.235358 -1.199259 -0.678793 -0.02617 0.08023 0.24322200000000002 1.512041
s -0.381961 0.121993 0.180108 0.289067 -0.365876 0.015844 0.158059 -0.140451 -0.696063 -0.139418 0.812773 0.19517900000000002 -0.5171859999999999 -0.150827 -0.42059599999999997 0.422263 0.877313 -0.498105 0.279016 0.26551199999999997 -0.75998 0.413343 0.472156 0.8690789999999999 -0.013702 -0.425246 0.851755 -0.03299099999999999 0.372214 -0.407092 0.219006 0.28458700000000003 -0.126254 0.22816599999999998 -0.39857600000000004 -0.867799 -0.9685779999999999 3.421687 -0.59624 0.524573 -0.399962 -0.47117299999999995 -0.303324 -0.24745499999999998 1.110328 -1.310187 0.9693369999999999 0.505546 0.551512 0.417268
services 0.47138500000000005 -0.095226 0.139536 0.645545 0.121786 -0.042804999999999996 0.36148499999999995 -0.715949 0.09159600000000001 0.991269 0.09229399999999999 0.080579 -1.386609 0.478103 0.466506 0.830545 -0.375453 0.22649 0.37396799999999997 -0.840455 -0.344036 -0.484467 -0.43749000000000005 -0.37675000000000003 -0.148935 -0.346792 -0.20264000000000001 -0.963875 1.802299 -0.133936 0.58859 -0.20026200000000002 0.013006 -0.028489 -0.06942699999999999 1.0224980000000001 -0.795169 4.471294 -0.165411 0.090086 -0.326746 -1.107391 -0.13844499999999998 -0.586516 0.074877 -0.187108 -0.445588 -0.95173 0.732381 -0.772435
some 0.477872 -0.67474 0.139472 -0.319283 -0.581537 0.041416999999999995 0.473898 -0.25573399999999996 -0.083985 -0.687902 0.14344099999999999 -0.180161 0.725402 0.123469 0.697472 0.351924 0.16797199999999998 0.02348599999999995 -0.29971000000000003 -0.718693 -0.06333700000000002 0.03905 -0.077289 -0.226823 0.193127 0.243604 -0.32542000000000004 -0.076617 -0.147313 -0.04652500000000001 0.374949 0.187117 0.337357 -1.268408 -0.201127 0.553374 0.23084100000000002 5.442776 -0.168425 -0.277281 0.10302700000000001 0.26399100000000003 0.521002 1.113813 -0.424664 -0.099629 -0.5178820000000001 0.034186 -0.27141400000000004 0.404544
these 0.7445999999999999 -0.680095 0.192326 -0.082651 -0.5638380000000001 0.679333 0.815002 0.03385699999999997 0.054744000000000015 -0.7870339999999999 0.08824599999999999 -0.24182700000000001 0.282127 -0.20175099999999999 0.7323379999999999 0.527277 -0.162469 -0.164915 0.308934 -0.8006070000000001 -0.11544099999999999 -0.10172 -0.374873 0.22851300000000002 0.174514 0.357097 -0.590071 0.6171 0.180619 -0.22378900000000002 0.11292100000000001 0.69599 0.413197 -1.363524 -0.492985 0.619097 -0.252784 5.022416 0.124994 0.741659 0.259154 -0.313343 0.801731 1.432097 0.065743 0.211345 0.12908800000000004 0.599454 0.167036 -0.113551
its -0.366852 0.045742 0.324228 0.367255 -0.09345399999999998 0.07859100000000001 0.489655 -0.8344 -0.386693 -0.11647000000000002 0.493723 0.544044 0.010096000000000008 0.045917000000000006 0.380973 -0.606924 -0.20996200000000004 0.18343499999999996 0.046869 -0.311125 -0.893791 -0.8174250000000001 -0.677448 -0.697337 0.268046 0.323035 0.112243 -0.20980300000000002 0.336661 0.040158 0.25055399999999994 0.335142 -0.595521 -0.504834 -0.208734 -0.476056 0.22642299999999999 5.830242999999999 -0.21919299999999997 -0.20006200000000002 0.130098 -0.213268 0.366749 -0.30262 0.543852 0.14763199999999999 -0.037248 0.031922 0.476674 -0.01911099999999999
like -0.561173 -0.197797 0.021335 -0.298882 -0.03428700000000001 0.10274900000000001 0.501656 0.826873 -0.196869 -1.0599370000000001 -1.019214 -0.219769 0.506852 0.38657899999999995 -0.398619 0.17101499999999997 -0.363 -0.576395 0.08247199999999999 -0.468551 -0.123523 0.12448899999999999 -0.091882 -0.045315999999999995 0.22145199999999998 -0.250113 -0.20094800000000002 0.394582 -0.165848 -0.08005499999999999 0.27168400000000004 0.40785899999999997 -0.48313500000000004 -0.950169 -0.330217 0.948332 0.208153 4.943292 0.336045 -0.075591 -0.04115100000000002 0.010707000000000008 -0.26026900000000003 0.581682 -0.286269 0.414532 0.33261700000000005 -0.09144300000000001 0.11703 0.711937
service 0.275146 -0.087061 0.150558 0.766095 0.574462 -0.322801 -0.090145 -0.24963000000000002 0.27926300000000004 0.707522 -0.002717999999999998 0.147057 -0.694913 -0.096158 0.457437 0.8201860000000001 -0.178708 -0.10891899999999999 0.25005 0.06893500000000002 -0.44452400000000003 -0.574355 -0.374583 0.08141799999999999 -0.234534 -0.416747 -0.646034 -1.165858 0.615229 -0.506963 0.592986 -0.553112 0.167773 0.076001 -0.246365 0.708886 -1.194756 4.766648999999999 -0.359336 -0.098884 -0.46465 -1.159754 -0.016897000000000002 -0.9084909999999999 -0.310633 -0.6890270000000001 -0.063753 -0.498916 0.9664200000000001 -0.804505
x 0.35636500000000004 0.276896 -0.05303100000000001 -1.033595 -0.834767 0.27640699999999996 0.170673 -0.11243600000000001 0.13861800000000002 -0.818407 0.849088 0.5417770000000001 -0.49112999999999996 0.138637 -0.94103 -0.988291 0.49378299999999997 -0.658165 1.0701019999999999 0.465122 -0.32727300000000004 -0.418728 0.51351 1.768275 0.442403 -0.7158059999999999 0.17023500000000003 0.67276 -0.680537 -0.358751 0.653152 -0.12102599999999998 0.36728 -0.681942 -1.2635429999999999 -0.5535030000000001 -0.33819499999999997 3.1532299999999998 -0.37125199999999997 0.333766 0.159548 -0.547509 -0.7647759999999999 -0.941926 0.607064 -1.186413 0.50333 1.052068 1.042445 0.271641
than 0.386918 -0.172011 -0.07925 -0.485425 -0.757586 0.124384 0.52015 -0.7600060000000001 -0.20922200000000002 -0.796795 0.205721 0.036509 0.554054 0.015511000000000011 -0.154405 0.065194 0.217963 -0.261831 0.0005659999999999971 0.125627 -0.392776 -0.038269 0.7021620000000001 -0.44418899999999994 0.273363 0.050985 -0.047453999999999996 -0.515058 -0.056602000000000006 0.11675 0.738992 0.07998 0.326867 -1.158131 -0.22903 0.387619 0.547801 5.523179000000001 -0.107462 -0.27354 0.02821499999999999 0.287767 0.42987 0.88394 -0.33086400000000005 -0.3587 -0.294025 0.28303599999999995 -0.45412399999999997 0.8458380000000001
find 0.0006430000000000047 -0.161917 -0.338782 0.194721 0.159832 0.125645 -0.14182 0.376226 -0.057253 -0.33418 -0.449407 -0.20938400000000001 0.28503 0.175518 0.005217000000000001 0.20413099999999998 0.002567 -0.478945 -0.09623500000000001 0.0026020000000000036 -0.059930000000000004 -0.028358 -0.6335470000000001 0.20404 -0.575077 -0.046985 -0.503823 0.345671 1.101162 -0.406755 -0.05204599999999998 0.14495 -0.058582 -1.0450849999999998 -0.338004 0.61632 0.419276 4.495226 0.504219 0.22493 -0.049177 0.680389 0.739017 0.928034 -1.13069 -0.18295 0.119274 0.255159 0.180301 0.823949
price 0.712114 1.182525 -0.369548 0.032410999999999995 -0.041977 -0.834424 0.70719 -0.960162 -1.04892 -0.116931 0.03646200000000001 0.9314709999999999 0.558493 0.870754 -0.44267999999999996 -0.010428 0.256457 -0.27511199999999997 0.084559 -0.151694 -0.203731 0.002476000000000006 0.599205 -0.0632 0.524891 -0.01624700000000001 0.199036 -1.227978 1.002791 -0.351407 0.711552 -0.05286800000000001 0.218642 0.109918 -0.08948400000000001 -0.292705 -0.331727 4.347647 -0.654598 -0.24449700000000002 -0.42015100000000005 1.099061 0.266728 1.060092 1.510801 0.060871999999999996 0.265252 -0.17464400000000002 -0.020824000000000002 0.214249
date 0.682102 -0.10717299999999999 -0.637099 -0.845891 0.601348 -0.235844 -0.192994 -0.287697 0.051098000000000005 0.9949729999999999 0.513115 0.415429 0.543676 -0.815349 0.16395700000000002 -0.394215 -0.016908000000000006 -0.121629 -0.012345 0.367946 0.078697 -0.023627000000000002 -0.5995010000000001 0.266807 -0.074134 0.440983 -0.9848299999999999 -0.037315 0.012794 -0.021033999999999997 -0.216401 0.16272199999999998 0.454947 -0.298606 -0.828354 -0.457115 -0.242863 3.9609500000000004 -0.433595 0.652166 0.01551 0.726383 0.756237 0.018129 0.822172 -0.293544 0.137778 0.6988270000000001 0.45750599999999997 0.021326
back -0.315378 -0.7123630000000001 -0.07298199999999999 0.233645 0.26450399999999996 -0.419042 -0.096161 0.21779900000000002 0.15571000000000002 -0.227155 -0.276821 0.630907 0.6392610000000001 0.044829999999999995 -0.431317 -0.19042499999999998 0.06031 -0.335567 0.296814 0.8967959999999999 0.742914 -0.12386 0.469923 -0.018678 0.029102 -0.171258 -0.40563400000000005 0.15155000000000002 -0.195963 0.213354 -0.666671 -0.363423 -0.9592639999999999 -0.402939 0.6683950000000001 -0.33658099999999996 0.05673500000000001 5.191022 0.35852700000000004 -0.295136 -0.49704499999999996 0.513904 0.283391 0.506791 -0.513936 -0.17858 -0.391322 -0.44790800000000003 -0.207262 -0.26573
top -0.10406699999999999 -1.205876 -0.137853 0.204406 -0.528864 -0.255781 -0.415675 0.0070129999999999915 0.451874 -0.308209 -0.46161300000000005 -0.680033 0.365952 -0.187732 -1.169585 -0.10726999999999999 0.26464600000000005 0.223327 0.42685700000000004 0.039077 0.14965 -0.31894199999999995 0.054783 -0.88784 0.105564 0.378483 0.991844 -0.444042 -0.34543 -0.46656699999999995 0.573371 -0.299454 -0.157733 0.315585 0.044638000000000004 -0.634329 -0.32630000000000003 4.990833 0.537886 -0.729744 0.163769 0.5795 0.2779 -0.518987 0.01593 0.350603 0.507984 0.439523 0.17088799999999998 -0.047389000000000014
people 0.060669 -0.774841 -0.122293 -1.009583 -0.285308 -0.115109 -0.020028 -0.316054 0.382759 -0.779786 0.954588 -1.082956 -0.335981 0.299108 0.8030809999999999 0.638412 -0.128176 0.18963100000000005 -0.430359 -0.9212609999999999 0.344304 0.03900000000000001 0.308133 0.093185 -0.414995 -0.169329 -0.545079 0.19486599999999998 -0.414429 -0.10178700000000002 0.518927 -0.45985200000000004 0.501701 -0.860045 -0.184921 1.035642 0.558304 5.2553540000000005 0.039266999999999996 -0.18707100000000002 0.449208 0.29112099999999996 0.275673 0.930446 -1.3335569999999999 -1.106549 -0.977687 0.10491100000000003 -0.254983 1.08134
had 0.174024 -0.452683 0.32227300000000003 -0.194954 0.591664 -0.068495 -0.06604499999999999 0.043731000000000075 0.19339499999999998 0.534803 0.44710399999999995 0.785416 0.6165120000000001 -0.09950200000000001 0.213349 0.107673 0.2924 0.04314000000000001 -0.12835200000000002 -0.04398100000000002 1.053901 0.21494200000000002 0.75013 -0.33320099999999997 -0.09415899999999999 0.688469 0.221531 0.08098 -0.236421 0.117989 -0.185966 -0.560381 0.285783 -0.651142 0.936376 0.11528 0.045029999999999994 5.354419 0.17063800000000007 -0.183196 -0.496576 -0.079347 0.109528 -0.077491 -0.28874999999999995 0.11729699999999998 -0.6013 0.454952 -0.26014400000000004 0.310619
list 0.49961 -0.993609 -0.470133 -0.420146 -0.182778 -0.013356999999999997 0.671728 -0.10660399999999999 0.89334 0.6037710000000001 0.136885 -0.8616550000000001 0.513274 -0.179712 -0.09792999999999999 0.266826 0.361704 -0.075925 0.223504 -0.647778 -0.23735299999999998 -0.254513 0.260369 -0.29529700000000003 -0.152716 0.8613649999999999 0.017041000000000014 -0.054431 -0.182552 -0.504885 0.119408 0.011576000000000003 0.46385 0.17128 -1.150886 -0.055139999999999995 -0.679988 4.160685 0.336751 0.415126 0.027491 -0.177566 1.007257 -0.466461 -0.091182 -0.237535 0.451778 0.802681 0.8067869999999999 -0.116428
name -0.567215 0.394054 -0.32987299999999997 -0.047817 0.924895 -0.063993 0.645213 0.873882 0.170737 0.147517 0.5696749999999999 0.331631 0.398096 -0.043800000000000006 -0.38788500000000004 0.538266 -0.061105999999999994 -0.160366 -0.034758 -0.521888 -0.27119099999999996 1.338782 -0.7066399999999999 0.401346 -0.347708 0.396401 -0.271446 0.096577 -0.815111 0.0031669999999999997 -0.290854 0.196024 -0.18547 0.070585 -0.520626 0.057443 -0.325855 4.318331000000001 0.312194 0.49347799999999997 -0.397318 -0.693759 0.141992 -0.43059099999999995 0.234174 0.25515 0.29364300000000004 0.5646720000000001 0.6601859999999999 0.590228
just -0.20563199999999998 -0.290331 -0.621339 0.048993 -0.149668 -0.405678 -0.140631 0.01624399999999998 -0.17512100000000003 -0.556217 -0.519847 0.10191599999999999 0.171345 -0.08254199999999999 -0.129029 -0.268183 0.115754 -0.705762 -0.261561 0.7767120000000001 0.05077400000000001 -0.038402 0.781014 0.325033 -0.240147 -0.122574 -0.340797 0.075036 0.026213 0.264666 -0.303002 -0.077351 -0.5115649999999999 -0.5688759999999999 0.132855 -0.28647300000000003 0.402428 5.296735 -0.16970000000000002 -0.24609 -0.39813200000000004 0.755164 0.23040100000000002 0.749258 -0.712796 -0.591125 -0.246623 -0.206648 -0.17028700000000002 0.849026
over 0.30162 -0.531367 0.209031 -0.28561000000000003 -0.302919 -0.092269 -0.191776 -0.10628699999999996 -0.03953999999999999 -0.6268210000000001 0.17574099999999998 0.506532 0.377403 -0.03415600000000002 0.136333 -0.504671 0.37678300000000003 0.14622800000000002 0.007925999999999999 0.305934 0.435536 -0.369944 0.408462 -0.903156 0.312886 0.08337 0.308991 0.015001999999999988 -0.540907 0.023275000000000004 -0.18710400000000002 -0.31223 -0.502792 -0.164486 0.127052 -0.671116 0.16198 5.504703 -0.314271 -0.653686 -0.21309999999999998 0.28657900000000003 0.233315 0.463742 -0.359937 -0.04583799999999999 -0.649977 -0.202326 0.11876899999999999 -0.565184
state 0.804071 0.6444719999999999 0.23912899999999998 0.223134 -0.216149 -0.456033 -0.676856 -0.757713 0.282247 0.335816 0.049192 -0.925035 -0.958558 0.746786 0.688034 -0.178078 -1.301075 -0.141214 -0.54234 -0.09426100000000001 -0.458777 0.0006159999999999994 -0.068057 -0.469264 -0.252703 0.727032 0.308295 -0.140301 -1.065272 -0.264613 -0.030491000000000004 -0.739672 0.20593299999999998 0.779542 -0.239447 -0.122919 0.208293 5.204719 0.129182 0.391383 -0.156507 -0.808057 0.439282 -0.406778 -0.599155 0.008882 -0.30246 0.515356 -0.272864 -0.433959
year 0.420169 0.17097 -0.220821 -1.223833 0.06006600000000001 -0.496772 -0.373278 -0.5206120000000001 0.49515299999999995 0.981026 0.304042 0.466303 0.35728299999999996 -0.218746 -0.595839 -0.569945 0.25668100000000005 0.11286600000000002 0.27542500000000003 0.385406 0.007596999999999993 -0.133354 1.185867 -0.78335 0.186542 0.17906099999999997 -0.092303 -0.6080650000000001 0.089645 0.467137 0.282493 -0.36544299999999996 0.186739 0.45586499999999996 0.09137200000000001 -0.033358 0.39117999999999997 5.486934 0.179125 -0.6311659999999999 -0.135587 0.580878 -0.04595200000000001 -0.244153 0.419679 -0.48656200000000005 -0.281136 0.119715 -0.266713 0.217991
day 0.38371 -0.35934699999999997 -0.279447 -0.676671 0.381391 -0.868952 -0.8004089999999999 -0.111071 0.195616 0.12173 0.013642 -0.22801700000000003 0.192056 -0.623555 0.050227 0.045818 0.032894999999999994 0.17552600000000002 -0.15314499999999998 0.490911 -0.05796 -0.44678700000000005 0.337491 0.133038 -0.272273 -0.054266 -0.64482 -0.244554 -0.209426 0.5468200000000001 -0.407072 -0.174363 0.078445 0.25579 0.035401999999999996 -0.017480000000000002 0.025634999999999998 5.118672 -0.477571 -0.441772 0.441156 0.914118 -0.07100200000000001 0.024701000000000015 0.419164 -0.642673 -0.42356499999999997 -0.723085 0.220787 0.295249
into -0.44679899999999995 -1.025338 -0.045270000000000005 0.276251 -0.01610399999999998 0.389798 0.089867 0.170051 -0.30056000000000005 -0.49072899999999997 -0.09101300000000001 0.284688 0.057926 0.520417 0.195615 -0.488817 -0.213973 -0.121146 0.126332 0.620532 0.263785 -0.087178 -0.47401899999999997 -0.7528710000000001 0.117013 -0.363796 -0.299737 0.255826 -0.407609 0.760972 -0.7427210000000001 -0.307292 -0.66118 -0.6778919999999999 0.296107 0.154893 0.118007 5.389924000000001 -0.11467200000000001 -0.018935 -0.370407 -0.180265 0.201776 0.5738679999999999 -0.491714 0.014259999999999995 0.095752 -0.18385 0.20374899999999999 -0.300151
two 0.49414 -1.834896 0.120945 -0.508738 -0.640781 0.060365 -0.280779 -0.01800999999999997 0.25859200000000004 -0.199666 0.058834000000000004 -0.154901 0.503792 0.08229 -0.149229 0.022588999999999998 0.7594609999999999 0.431519 -0.19714199999999998 0.292246 0.80481 -0.242371 0.462524 -0.449676 -0.213311 0.244724 0.190346 0.40283800000000003 -0.058998999999999996 0.15708300000000003 0.043299000000000004 -0.077407 0.24553599999999998 -0.544107 -0.206262 0.10009000000000001 -0.38825999999999994 5.532654 0.140066 -0.18963200000000002 -0.09956899999999999 -0.5893200000000001 0.027682000000000012 0.05639799999999999 0.380186 -0.066685 -0.07607799999999998 0.355023 -0.115974 -0.216876
health 0.6372770000000001 1.145512 -0.452125 -0.6735869999999999 0.08547300000000001 0.363464 -0.025480000000000003 -0.706761 0.656879 0.577377 -0.10239900000000002 -0.566444 -1.266587 -0.013352999999999997 0.192539 0.5161910000000001 -1.620579 0.08064500000000001 0.10806000000000002 -1.156205 -0.595323 -0.342078 0.214059 -0.292474 0.761412 0.366374 0.254769 0.187231 1.791552 0.032575999999999994 0.5270170000000001 -0.312505 0.5350349999999999 0.0845 0.381902 1.0162010000000001 -0.437067 4.602644 0.066555 -0.193832 0.473738 0.027744000000000005 -0.358938 -0.5115620000000001 -1.116169 -0.133114 -0.8725609999999999 -0.20741700000000002 -0.128025 -0.347155
world -0.42598600000000003 0.363449 -0.3235 -0.861847 0.222613 0.646479 -0.150299 0.37000199999999994 0.445625 -0.32922 0.250778 -0.985589 -0.09904700000000001 -1.112503 -0.901548 -1.10635 0.675465 0.366761 0.678153 -0.710603 -0.28080499999999997 -1.708215 0.19476900000000003 -0.457115 -0.242847 -0.39957699999999996 -0.36409199999999997 -0.453439 -0.114803 -0.646651 0.271002 -0.162609 -0.8089930000000001 0.290528 0.542849 -0.405889 0.250081 5.306589 0.44671299999999997 -0.354065 0.19131700000000001 0.06618399999999999 0.181587 0.406423 0.173981 -0.19929 0.927208 0.423138 0.336329 -0.015230000000000007
next 0.318008 -0.360645 -0.14771499999999999 -0.308707 0.28976399999999997 -0.611034 -0.470611 -0.131014 0.105142 0.265841 -0.165323 0.34248 0.021759 -0.521474 -0.528135 -0.8077380000000001 -0.176612 -0.226787 0.11841000000000002 0.736049 0.371218 -0.617267 0.143096 -0.273287 -0.540238 0.019857 -0.371536 0.04148 0.259823 0.181253 0.029803999999999997 -0.13646999999999998 -0.26408200000000004 0.037043999999999994 -0.299732 -0.5990800000000001 0.012667000000000001 5.168739 0.11707100000000001 -0.170098 0.08124500000000001 1.031876 0.5767369999999999 -0.280802 0.232443 -0.379653 -0.12464099999999999 -0.223183 -0.064713 -0.0007389999999999897
used -0.12605700000000003 -0.8366210000000001 0.596054 -0.13419999999999999 -0.09383599999999999 0.739591 0.889025 0.013367999999999991 -0.341259 -0.567102 -0.484221 0.729791 0.252261 0.277601 0.146119 0.374307 -0.368908 0.464712 0.012957999999999997 -0.345777 -0.129428 0.319348 -1.007543 0.432541 0.08874 -0.046855999999999995 -0.823581 0.153306 -0.126975 0.110022 0.250147 -0.313733 0.658272 -0.7479039999999999 -0.239256 0.37549 -0.777792 4.750546 -0.12296100000000001 0.576913 -0.684022 -0.470295 -0.048727999999999994 0.42844899999999997 -0.048343 0.670703 0.277265 0.5849470000000001 -0.108211 0.14255299999999999
go 0.07957 -0.13467600000000002 -0.073272 -0.073953 -0.040494 -0.93441 -0.06165 0.153567 -0.008613 -0.199175 -0.847573 -0.27985 -0.09051000000000001 -0.059875999999999985 -0.23661300000000002 -0.0013019999999999976 -0.335569 -0.598512 0.403539 0.305757 0.610996 -0.0944 0.13727499999999998 0.160202 -0.867218 -0.267993 -1.096794 0.406024 0.508795 -0.17859 -0.10752900000000001 0.003695999999999998 -0.590175 -0.39560700000000004 -0.32715 -0.04837400000000003 -0.08327799999999999 4.811147 0.24136000000000002 -0.142823 -0.042617999999999996 0.821793 0.34834000000000004 0.85529 -0.652666 -0.643006 0.20492 -0.19221 0.030077000000000003 0.51166
b -0.039455000000000004 -0.879513 0.459457 -0.277574 -0.510132 0.719606 0.321014 -0.29485 -0.480175 -0.34732799999999997 0.671907 0.091314 -0.9967079999999999 0.01395200000000002 -1.291362 -0.04414599999999999 1.210925 0.156864 0.318052 0.507386 0.03454 0.447732 1.48372 1.0102980000000001 0.60203 0.18829400000000002 0.12002199999999999 0.637489 0.62566 -0.5999650000000001 -0.6679539999999999 0.732697 0.836651 -0.071839 0.220417 -1.168399 -1.29102 3.478967 0.26253899999999997 1.2824849999999999 -0.567392 -0.305555 -0.789423 -0.298756 1.408716 0.048597 0.25277799999999995 -0.444634 1.277864 1.194644
work 0.111826 -0.20194800000000002 -0.17127799999999999 0.202998 -0.018894999999999995 0.543875 0.42175 -0.04103499999999999 -0.010169999999999998 0.8404229999999999 -0.44239 -0.48203700000000005 0.352748 -1.0499580000000002 0.45055 -0.052145000000000004 -0.43273300000000003 -0.098398 0.462516 -0.14804299999999998 -0.20925100000000002 0.128006 -0.790424 0.24121 0.056902 -0.391402 -0.418906 0.425122 0.616103 0.14274499999999998 0.343775 -0.034850000000000006 0.156462 -0.564271 0.054783 0.9344760000000001 0.40200800000000003 4.957097 0.39572599999999997 0.297917 -0.4377 -0.360167 0.23068699999999998 0.622193 0.114043 0.167566 -0.309008 -0.218384 -0.60968 0.008374
last 0.4662 -0.256687 0.050581 -0.856172 0.14831499999999997 -0.701417 -0.624584 -0.19151400000000002 0.217985 0.7300399999999999 0.29261000000000004 0.40781500000000004 0.576033 -0.233772 0.210428 -0.758317 0.47584099999999996 0.065583 -0.260031 0.12559399999999998 0.43410899999999997 -0.474129 1.048501 -0.8394950000000001 0.089111 0.44503899999999996 -0.025076 -0.279905 -0.23954 0.197326 -0.048598 -0.40405499999999994 0.004414000000000001 0.010041999999999995 0.30704299999999995 -0.590348 0.271094 5.512707 -0.123249 -0.878286 0.067608 0.86076 -0.076596 -0.529166 0.009259999999999997 -0.157768 -0.180764 -0.037450000000000004 -0.12026900000000001 0.32237400000000005
most 0.21089000000000002 -0.482718 -0.147741 -0.342266 -0.420642 0.2271 0.368907 -0.026810999999999918 0.258248 -0.6525569999999999 0.173441 -0.6882900000000001 0.424594 -0.364663 0.411318 0.274244 -0.081669 -0.015137999999999985 -0.41126300000000005 -0.416895 -0.353417 -0.234856 0.461302 -0.396767 0.266776 0.413294 -0.271683 -0.40659500000000004 -0.159207 -0.159472 0.25499400000000005 0.672088 0.33782700000000004 -0.7889029999999999 0.057847 0.587874 0.5472009999999999 5.29697 0.344902 0.47802199999999995 0.04713999999999999 -0.181595 0.9063060000000001 0.465628 -0.22719899999999998 0.24557400000000001 0.300142 0.437871 0.07053300000000001 0.6363989999999999
products 0.235654 0.030937000000000003 0.20769700000000002 -0.6487930000000001 0.750113 1.153364 0.945063 -1.054415 -0.628998 0.05466699999999999 -1.405238 0.954769 -0.222197 1.4289589999999999 -0.437707 -0.116686 -0.637875 0.79562 0.324952 -1.850886 -0.835597 -0.555986 -0.55525 -0.41353 0.752328 0.009566000000000019 -0.360794 -0.439614 0.976299 -0.694274 1.111232 0.695774 0.427357 -0.08517000000000001 0.049455 0.556271 -0.431241 4.31243 -0.40779299999999996 0.344927 -0.43482 -0.095391 0.027654 0.555776 0.816557 0.361696 0.20236099999999996 0.10604500000000003 0.321866 0.7045399999999999
music -1.56745 -0.643044 0.049526 -0.354931 0.692952 -0.01894699999999999 0.7790170000000001 0.513963 -0.767181 0.832577 -0.8218650000000001 -1.240137 -0.531279 -1.424299 -0.188985 0.149789 0.972929 0.16811500000000001 0.876168 -0.699403 -0.825566 0.483416 0.103268 0.0017810000000000048 0.37822 -0.8525579999999999 -0.068806 0.008743 -1.1032540000000002 0.13936300000000001 0.35911400000000004 0.852326 -0.845232 -0.402499 -0.615518 1.7135150000000001 0.43955299999999997 4.315239 -0.685775 0.64134 -1.06948 -0.377618 0.976391 0.24379299999999998 1.233184 0.654704 0.299921 -0.800664 0.10437199999999999 0.369005
buy -0.20279399999999997 0.355363 1.128438 0.132051 0.243661 -0.5158210000000001 1.136789 -0.759627 -0.5474640000000001 -0.12193699999999999 -1.102472 0.976108 0.578566 1.460669 -0.533826 -0.598663 0.203041 -0.42590100000000003 -0.0013439999999999997 -0.475394 0.220688 0.11888399999999999 -0.44746600000000003 0.010027999999999995 -0.656668 0.154486 -0.237732 -0.491555 1.204386 -0.5646410000000001 1.390763 0.54528 0.143035 -0.397485 -0.15869100000000003 0.25131099999999995 -0.39746099999999995 4.318298 0.143183 -0.354534 -0.26329400000000003 0.073793 0.18712800000000002 0.6808529999999999 0.10335300000000001 -0.594238 0.0065689999999999985 -0.398633 0.61032 0.898023
data 0.372055 -0.499915 -0.348427 0.574173 -0.742085 1.224198 0.129241 -0.952054 -0.080145 1.45123 0.023959 1.296384 -0.732208 0.272449 0.308611 0.581873 0.234024 -0.282424 -0.025956 -1.252338 -1.325672 -0.12384500000000001 -0.7266870000000001 0.0113 0.8490530000000001 -0.5587880000000001 0.239649 -0.524613 0.924235 -0.391921 0.094741 -0.705571 -0.024702 -1.396633 0.053977 0.277195 -0.8442890000000001 4.104414 -0.708568 0.47731500000000004 -0.813734 1.040632 1.442597 -0.010260999999999992 -0.271161 -0.367932 0.911734 0.732445 0.14185599999999998 -0.586662
make 0.048132999999999995 -0.132966 0.19881900000000002 -0.08725100000000001 -0.053379 -0.244232 0.255046 -0.48655600000000004 -0.20941300000000002 -0.42564399999999997 -0.8555969999999999 -0.047685 0.44460600000000006 -0.016937999999999995 0.041712 0.05872999999999998 -0.320044 -0.23849900000000002 0.24412199999999998 0.04062500000000001 -0.22094199999999997 -0.27579299999999995 -0.252014 -0.102701 -0.259492 0.044971 -0.5118050000000001 0.548038 0.7250909999999999 -0.5480069999999999 0.288863 0.455859 -0.16341 -0.469843 -0.49472900000000003 0.022038000000000002 0.154976 5.234869 0.37155299999999997 0.25121499999999997 -0.204778 0.537876 0.498893 0.929398 -0.469801 0.214519 -0.17334199999999997 0.146484 -0.068511 0.7192289999999999
them 0.010715999999999996 -0.794721 0.472199 -0.22233799999999998 0.19980699999999998 0.189076 0.296943 -0.221963 0.13059300000000001 -0.5152249999999999 -0.34131999999999996 0.08694099999999999 0.22525699999999999 0.3527 0.371768 0.231454 0.04208400000000001 -0.19661299999999998 0.55889 0.207134 0.8019430000000001 0.222877 -0.244292 0.34556600000000004 -0.686886 0.25072700000000003 -0.602642 0.7057519999999999 0.374872 -0.314749 -0.009909999999999999 -0.133621 0.029450000000000004 -0.717497 0.223993 0.49000600000000005 0.2085 5.264678 0.30828900000000004 -0.093224 -0.278051 0.338506 0.628386 1.498129 -0.867373 -0.226472 -0.775219 0.444164 0.10386000000000004 0.552489
should 0.200395 0.551721 0.260817 0.089282 0.186218 -0.36940799999999996 0.180239 -0.843932 -0.05982 -0.21295599999999998 0.028506000000000004 -0.008806000000000001 -0.217269 -0.26319000000000004 0.052535000000000005 0.040783999999999994 -0.703805 -0.23413899999999999 0.450117 -0.310374 0.366585 -0.017344 -0.28998599999999997 0.010544999999999999 -0.54295 0.22996299999999997 -0.627854 0.811776 0.564307 -0.809007 0.25598499999999996 -0.13217399999999999 -0.064375 -0.66813 -0.227771 -0.217964 -0.23445300000000002 5.05825 0.244968 0.261439 0.364577 0.6250749999999999 0.6524319999999999 0.900977 -0.870672 0.422356 -0.644432 0.48398699999999995 -0.10682 0.369022
product 0.495425 0.361731 -0.668988 -0.12461999999999998 0.253206 0.8810290000000001 0.723605 -0.9733099999999999 -0.491224 0.37468500000000005 -0.46028499999999994 0.862222 -0.379121 0.734712 -0.23927 -0.203043 -0.33106800000000003 0.080217 0.472892 -0.799111 -1.4017309999999998 -0.09967499999999999 -0.185037 -0.26294 0.493506 -0.12476899999999999 0.045297000000000004 -0.404809 0.91171 -0.210004 0.9734419999999999 0.5276959999999999 -0.20879399999999998 -0.46279000000000003 -0.404117 -0.141091 -0.046801999999999996 3.906601 -0.336758 0.173739 -0.7526109999999999 0.44878799999999996 0.327181 -0.00037099999999999633 0.640415 0.7031970000000001 0.429316 0.437909 0.066665 0.8064880000000001
system -0.434668 0.026870999999999992 0.109945 0.602745 -0.668894 0.087754 0.807983 -0.891845 0.122689 0.118363 0.263965 0.799196 -1.29637 -0.035812000000000004 0.6592279999999999 0.12627200000000002 -1.3399429999999999 -0.137431 0.022420000000000002 0.005828 -0.95323 -0.713279 -0.568967 -0.5947990000000001 0.45828599999999997 -0.5861000000000001 -0.414805 0.164018 0.280099 -0.036021 0.246402 -0.6642399999999999 -0.241712 -0.9502900000000001 -0.21764599999999998 0.07989099999999999 -1.15504 4.725103 0.022742 0.837811 -0.836379 -0.892662 0.244601 -0.253411 -0.474996 0.273358 0.734106 0.7339629999999999 -0.032455 -0.717057
post -0.07630100000000001 -0.306585 -0.511852 0.72094 0.073097 -0.294607 0.0008099999999999982 0.066361 0.179477 1.057936 0.043921 -0.22743000000000002 -0.06509300000000001 -0.188905 0.28582799999999997 0.11041000000000001 -0.34521 -0.603629 -0.161246 0.220581 0.40522400000000003 0.15843000000000002 -0.429728 0.557533 0.276916 0.209702 0.332744 -1.100095 -0.34211199999999997 -0.11351900000000001 -0.063389 -0.836877 0.207131 0.6013740000000001 0.26893100000000003 -0.356575 -0.478903 4.1410730000000004 -0.132919 -0.005347000000000001 -0.645392 0.444569 0.257717 -0.811372 -0.332691 -0.130373 -0.20302699999999999 -0.320275 0.72557 -0.571249
her -1.502313 -0.09552200000000001 -0.818086 -0.288821 1.134369 0.19886700000000002 -0.98414 0.8357330000000001 -0.6273799999999999 0.11081099999999999 -0.261935 0.5085770000000001 0.502287 -0.9150360000000001 -0.513307 0.382693 -0.14598299999999997 -0.4067160000000001 1.06382 0.5289189999999999 0.183551 0.742839 0.128427 0.062457 -0.24645800000000004 0.24598599999999998 -0.045479000000000006 0.480344 0.6925939999999999 0.299904 -0.921509 0.107862 -0.30389 0.138708 0.104699 1.450326 0.9838450000000001 5.252366 0.31575 -0.8399449999999999 -0.696137 -0.26325699999999996 -0.07750399999999999 0.37504 -0.39698900000000004 -0.120913 -1.101906 0.6375120000000001 0.442257 0.033142000000000005
city 0.484867 -0.074574 -0.238305 0.49810299999999996 -0.0033150000000000124 -0.384907 0.061523 0.656746 0.449065 -0.304373 -0.19880499999999998 0.094377 -1.189812 0.860017 1.01912 -0.5888530000000001 0.05127999999999999 0.670252 -1.409645 0.160397 0.030127999999999995 -0.151598 -0.036341000000000005 0.112927 -0.851226 0.289497 -0.276023 -0.153223 -1.02675 0.614296 0.169996 -0.113338 -0.072269 0.565559 -0.072405 0.66799 1.359671 5.268623 -0.08108000000000001 0.129767 0.0007339999999999985 -0.5628 0.23457 -0.655 -0.12529900000000002 -0.920277 -0.18462 -0.8412850000000001 -0.374489 0.042214999999999996
t -0.5002850000000001 -0.145278 0.485819 0.348029 -0.282397 0.274244 0.802767 -0.26680099999999995 0.059431 -0.578358 -0.454997 1.2017769999999999 -0.262 0.928577 -0.817601 0.868773 0.174537 -0.09850800000000001 1.022691 -0.56484 0.133387 0.14510800000000001 0.7938529999999999 1.2232560000000001 0.136445 -0.271793 0.084921 0.018465000000000002 0.011892 -0.247836 0.46840899999999996 0.571286 -0.051321000000000006 -0.86703 -0.806647 -0.603029 -0.8095019999999999 3.533312 -0.216175 -0.144108 0.303129 -0.238291 -0.8804449999999999 -0.738136 0.8103039999999999 -0.32509699999999997 0.142052 0.5640769999999999 0.672912 0.48273699999999997
add 0.824983 -0.476348 -0.187747 -0.199681 0.018341999999999997 -0.08507800000000001 0.00870700000000002 -0.555658 -0.603744 -1.049176 -1.001143 0.526872 0.34387 0.608545 -0.17916100000000001 -0.6035240000000001 -0.084219 -0.279534 0.6781780000000001 0.34931 -1.102433 -0.144193 -0.44909299999999996 0.028838000000000003 0.404606 -0.23613900000000002 0.18168 0.42586899999999994 0.23974099999999998 -0.485237 0.87633 0.746653 0.260686 0.102007 -0.8848340000000001 -0.22693699999999997 -0.650071 3.95642 -0.329538 0.093771 -0.37090199999999995 0.6282909999999999 0.549139 0.918773 -0.645942 0.216947 -0.523159 -0.564228 0.149387 0.16864500000000002
policy 0.528227 1.013773 0.306988 0.7105030000000001 -0.707454 -0.041655000000000005 -0.07779699999999999 -1.1528420000000001 0.29342799999999997 0.453862 0.255597 -1.06531 0.008839 -0.976606 0.556467 0.253657 -1.730173 -0.388955 0.09200099999999999 -0.339528 -0.421794 0.36693 -0.468881 -0.088825 0.627857 -0.250105 -0.08326399999999999 0.29767 1.01669 -0.919235 0.312855 -0.699689 -0.86663 0.235654 0.310542 -0.324783 0.368208 4.3039629999999995 -0.062476000000000004 -0.226943 0.540009 0.004477999999999996 0.24089500000000003 0.296532 0.075978 0.9949169999999999 -0.199142 0.422584 0.308565 -0.9781169999999999
number 0.767511 -1.015551 -0.50054 -0.552326 -0.572913 0.319426 0.6349940000000001 -0.452348 0.49739 -0.168243 0.7518640000000001 -0.5952789999999999 0.249454 -0.14633 -0.123379 0.522144 0.672345 0.46710399999999996 0.209283 -0.253382 0.063616 -0.226611 0.551113 -0.320955 0.226022 0.09036599999999999 -0.148209 -0.363093 -0.005329 -0.254223 0.401976 -0.132606 0.710924 -0.737287 -0.540762 0.334269 -0.471769 4.818637 -0.326597 0.127353 -0.08397500000000001 0.01586 1.028208 0.278562 0.399007 -0.6573199999999999 0.166403 0.9111480000000001 0.134046 -0.140824
such 0.367856 0.126578 0.26399300000000003 -0.32488 -0.28538699999999995 0.428546 0.7207330000000001 0.17063899999999999 -0.34875300000000004 -0.6181099999999999 -0.17507499999999998 -0.40603100000000003 0.230319 0.067141 0.504926 0.5209010000000001 -0.16326400000000002 0.366249 0.250248 -1.104271 -0.40760599999999997 -0.20568399999999998 -0.483205 -0.146304 0.469623 0.027551 -0.38578 0.47582199999999997 0.271532 -0.302049 0.44399099999999997 0.591732 0.199991 -0.7051890000000001 -0.576307 0.767638 -0.071791 5.070719 0.06073400000000001 0.37171600000000005 -0.059616999999999976 -0.222029 0.163299 0.735379 0.23757899999999998 0.906645 0.41927900000000007 0.203644 0.18535 0.051641
available 0.708753 -0.904667 0.007579 -0.42058799999999996 -0.075264 0.581348 0.9345829999999999 -0.539387 -0.140557 0.41637599999999997 -0.620658 0.867773 -0.378143 -0.10763900000000001 -0.211043 0.577411 0.159024 -0.03751300000000002 0.315577 -0.15527000000000002 -0.601383 -0.246273 -0.713886 -0.006640999999999999 0.004942000000000002 0.10090299999999999 -0.60349 -0.535423 0.626405 -0.60411 0.6937679999999999 0.153608 0.637806 -0.502127 -1.021553 0.290217 -0.920167 4.3982019999999995 -0.390938 0.527883 -0.718343 0.163276 0.774362 -0.188491 -0.112827 -0.24556899999999998 -0.11329299999999999 -0.09108000000000001 0.434816 0.530717
support -0.40397099999999997 -0.133743 1.28802 0.43175600000000003 -0.17993900000000002 -0.144281 -0.12465499999999999 -1.108665 0.46623000000000003 -0.015748 1.04828 -0.363645 0.025141999999999998 -0.148023 0.575679 0.573141 -0.793382 0.623068 0.450442 -0.203482 -0.010036 -0.148629 -0.427058 -0.047456000000000005 0.23786100000000002 -0.342341 0.440959 -0.007452 0.617595 -0.281563 0.6779470000000001 0.128199 -0.23979899999999998 -0.264817 -0.21098899999999998 -0.376552 0.3242 4.7943549999999995 0.5526960000000001 0.24039299999999997 -0.08946 0.112457 0.405707 -0.142739 -0.358551 0.359993 -0.9609319999999999 0.298518 0.020985999999999998 -0.457885
message -0.543011 -0.386567 0.550349 0.763924 0.542848 -0.433547 -0.631762 -0.369494 0.494366 -0.33974099999999996 0.336127 -0.059815 0.240552 -0.599055 0.656274 1.0007700000000002 -0.10837200000000001 -0.105927 -0.0893 -0.603988 -0.916803 0.48920800000000003 -0.22194799999999998 0.977012 0.12089600000000003 -0.6026279999999999 -0.153246 0.5586720000000001 0.250079 -0.693802 0.332101 -0.490222 -0.70045 -0.477811 -0.577006 -0.165719 0.350625 3.742676 -0.391988 -0.040755 -0.256893 1.2574930000000002 0.146173 -0.088372 -0.712687 0.32595 -0.693447 0.052395 1.645495 0.43555900000000003
after -0.06760200000000001 -0.395542 0.158339 -0.426883 0.604589 -0.550948 -0.768694 0.13810999999999996 0.011889999999999998 0.565347 0.537496 0.891012 0.289903 -0.262851 0.41820399999999996 -0.6374679999999999 0.24574500000000002 0.299335 0.137288 0.49043400000000004 0.843369 -0.064949 0.667925 -0.416042 -0.122671 0.091068 -0.458026 0.157357 -0.149844 0.735147 -0.69708 -0.6303559999999999 0.020713000000000002 0.197474 1.010221 -0.33396800000000004 -0.12604300000000002 5.472225 -0.114066 -0.517419 -0.39359099999999997 0.566006 -0.14682 -0.214082 0.07357299999999999 0.19427 -0.40962 -0.23203200000000002 0.049727999999999994 -0.285662
best -0.553161 -0.24193 -0.34208700000000003 -0.576716 -0.383519 0.023838000000000012 0.0064639999999999975 0.404605 0.059510999999999994 0.207041 -0.780521 -0.969665 0.45826100000000003 -0.888798 -0.762278 -0.025069999999999995 0.8600369999999999 -0.22859100000000002 0.819566 0.344294 -0.976748 -0.215243 0.46283699999999994 0.129317 -0.06426899999999999 0.038215 0.023078999999999995 -0.306905 0.21469 -0.506952 0.087253 0.758972 -0.216312 0.483866 -0.5051370000000001 0.13339299999999998 0.11318 4.76411 0.880897 0.302787 -0.830406 0.323989 0.5712809999999999 0.404226 0.123818 0.075607 0.41789 0.225198 -0.20505400000000001 0.606312
software -0.413537 -0.279153 0.410923 -0.37607999999999997 -0.794726 0.414003 0.639583 -0.3618969999999999 -0.06900400000000001 1.4457010000000001 -0.830641 1.013089 -1.109906 0.8999520000000001 0.303291 -0.27460399999999996 -0.206625 -0.160278 0.018007999999999996 -1.0944 -1.25144 -0.250119 -1.303639 -0.425033 0.713783 -0.984449 -0.16441100000000003 -0.487641 0.800665 -0.797933 0.653822 -0.025624 -0.631686 -1.5180129999999998 -0.189901 0.48708500000000005 -0.751721 3.677393 0.41512400000000005 0.08682599999999999 -2.467275 0.256011 0.290009 -0.308312 0.143375 0.33342700000000003 0.6966519999999999 0.155754 0.41056099999999995 0.670846
then -0.092526 -0.5805359999999999 0.046179 0.386281 0.6440309999999999 -0.0018289999999999973 -0.16478700000000002 0.250761 -0.20585199999999998 -0.13277999999999998 -0.040379 0.646746 0.035719 -0.164369 -0.400166 -0.523354 -0.09861400000000001 -0.21062099999999997 0.507134 0.904751 0.7526930000000001 0.667912 0.06894499999999999 0.124487 -0.478379 -0.015081000000000004 -0.411744 0.390421 -0.624823 0.5266569999999999 -0.61166 -0.569071 -0.10559900000000003 -0.30364800000000003 0.5622659999999999 -0.163505 -0.280326 5.019261 0.013432 0.22239899999999999 -0.878355 0.074094 0.49257799999999996 0.299044 -0.214787 0.213731 -0.428468 -0.101543 0.116994 -0.13555499999999998
good -0.368956 0.28724 -0.553029 0.36667700000000003 0.280889 -0.408461 -0.09103800000000001 0.080702 0.023188 -0.483541 -0.807364 -0.39151400000000003 0.14775 -0.610724 -0.5199480000000001 0.309056 -0.15560400000000002 -0.416301 0.357773 0.27587 -1.045715 0.06104699999999999 0.281942 0.309994 0.061884999999999996 0.047158000000000005 -0.36636 0.12275599999999999 0.766491 -0.390015 0.012928000000000002 0.601044 -0.463093 -0.241706 0.122064 -0.07329599999999999 0.256903 5.011559 0.670609 0.167925 -0.171402 0.559266 0.18362799999999999 1.199258 -0.584449 0.248707 0.031577999999999995 -0.193955 -0.164531 1.003577
video -1.0017019999999999 -1.501878 0.6350020000000001 -0.40251400000000004 -0.038049 0.5218700000000001 0.218341 0.623662 -0.287682 1.0339019999999999 -0.836762 0.49872 -0.877963 -0.559072 0.641925 0.840454 1.242766 -0.41089600000000004 1.12368 -0.104981 -0.7024969999999999 -0.347217 -0.315 0.13050299999999998 0.172988 -0.655898 0.257415 -0.016802 -0.108514 -0.5948599999999999 0.030411 -0.267868 -0.364606 -0.331 -1.143583 0.949516 0.385057 4.077166999999999 -0.561156 0.05815699999999999 -1.145256 0.917025 0.238907 -0.562804 0.771596 -0.052225 0.629536 0.570199 1.0256729999999998 0.715285
well 0.00429899999999999 -0.487475 -0.052168 0.034378000000000006 -0.09063999999999997 0.442008 0.294194 0.121915 -0.110397 -0.331875 -0.212145 -0.268316 0.028470000000000002 -0.368934 -0.17183500000000002 0.257061 -0.13062200000000002 0.135724 0.098034 -0.18080599999999997 -0.183805 0.008318000000000006 -0.159138 -0.194167 0.229543 0.131192 -0.09973800000000001 0.0062379999999999936 0.034076 0.004235000000000003 0.148436 0.441299 0.073614 -0.331961 0.193414 0.395031 0.19469399999999998 5.206369 0.27175900000000003 0.400427 -0.12342999999999998 -0.278844 0.43789999999999996 0.526375 -0.032165 0.22153699999999998 0.053185999999999956 -0.12601500000000002 -0.134197 0.317022
d 0.552137 0.544603 1.036542 0.37845 -0.22073399999999999 0.45384599999999997 -0.756444 0.105954 0.422373 -0.601253 -0.7591140000000001 -0.249714 -0.242107 0.212048 -0.85031 0.281478 -0.141522 0.168653 0.212751 0.530045 -0.290185 0.878001 0.931007 0.878664 0.378623 -1.015962 1.055495 0.878223 -0.010378000000000002 0.21728799999999998 0.46345000000000003 1.0382120000000001 0.574639 -0.289082 -1.465519 -1.258545 -0.913901 3.326564 -0.6794990000000001 1.0512869999999999 -0.208213 -0.12130300000000002 0.004165000000000002 -1.55838 0.248029 -0.243927 0.22302 0.406697 -0.115566 0.18556899999999998
where 0.200377 -0.289728 -0.341022 0.139191 0.03491899999999998 0.286827 3.299999999999831e-05 0.666594 -0.128492 -0.36478499999999997 0.073911 -0.18263400000000002 -0.553919 0.086741 -0.19517800000000002 -0.354619 0.014897999999999995 0.212856 -0.301375 0.217308 0.558792 0.046745999999999996 -0.463914 0.041686 -0.5400750000000001 0.13861400000000001 -0.6460509999999999 -0.38545 -0.706722 0.719931 -0.486113 -0.20359300000000002 0.176901 -0.527898 -0.08205799999999999 0.40004799999999996 0.7229869999999999 5.266442 -0.158555 0.10522000000000001 0.068881 -0.293167 0.358569 -0.112467 -0.364853 -0.282524 -0.12211899999999998 -0.41196 -0.133896 0.08972500000000001
rights -0.677045 1.2565460000000002 0.312593 -0.569792 0.193453 0.466796 -0.06493700000000001 -1.179402 0.580638 1.0653199999999998 0.7041550000000001 -1.341802 -0.731397 0.235728 1.310851 0.475757 0.222798 0.102892 0.331517 -0.629456 0.33269499999999996 -0.552406 -0.157843 -0.279925 -0.190993 0.078902 0.089431 0.50898 -0.299333 -1.214791 0.175395 -0.38156 -0.364223 0.22131499999999998 -0.536206 0.31150999999999995 0.381347 4.3367059999999995 0.12145800000000001 0.039134 0.559821 -0.46263699999999996 -0.22172199999999997 0.43380399999999997 -0.272103 0.769393 -0.7357670000000001 0.918689 0.609043 -0.455102
public 0.13236399999999998 0.640093 0.021281 0.52703 -0.122866 -0.101165 0.08628799999999999 -0.17525000000000002 0.344011 0.11943999999999999 -0.168874 -0.393902 -0.987025 -0.32572 1.464264 0.361862 -0.748275 -0.22502700000000003 -0.09843500000000001 -0.8033570000000001 -0.227806 -0.301766 0.036539999999999996 -0.23033399999999998 -0.274262 0.370275 0.271231 -0.436788 0.540113 -0.053355 0.334699 -0.298508 0.131071 0.238938 -0.394872 0.6993130000000001 0.408335 4.9780999999999995 -0.352748 -0.29223699999999997 -0.15343400000000001 -0.063161 0.096282 0.13588 -0.231107 0.3398 -1.032695 0.05555299999999999 0.55358 -0.6158159999999999
books -0.18832800000000002 -0.473115 -0.357683 -1.168354 -0.285387 0.734784 1.33084 0.593812 0.505154 0.9730139999999999 -0.773401 -0.409989 0.804767 -0.520445 0.11976500000000001 -0.5288999999999999 0.57965 -1.300458 0.44236800000000004 -0.7900659999999999 -0.7263120000000001 0.558927 -0.8424590000000001 0.623867 0.7960280000000001 0.205904 -0.204119 -0.5734360000000001 -0.019601 -0.440701 0.223186 -0.164914 -0.13380999999999998 -0.089086 -0.8670329999999999 1.102011 -0.12150899999999998 3.9473380000000002 -0.155302 -0.096607 -0.9690670000000001 -0.26405 0.051411 0.950906 -0.07317900000000001 -0.618106 -0.439351 -0.14783 1.700301 -0.220894
high 0.214581 0.351661 0.176499 0.40855600000000003 -0.708945 -0.01939799999999999 -0.152018 -0.170787 -0.258021 -0.745428 -0.44087699999999996 0.461509 -0.806383 0.38528 -0.790977 0.240904 -0.215023 0.601926 -0.505402 0.400916 -0.781636 0.101325 0.7020379999999999 0.18314799999999998 0.558054 0.258901 -0.11002300000000001 -1.042246 -0.027816999999999995 0.6101350000000001 -0.283481 -0.140423 0.056517 -0.438622 -0.080806 0.618445 0.483392 5.005597 -0.574817 -0.07639499999999999 -0.054812000000000013 -0.287078 0.06199100000000002 0.207622 0.518194 0.018169 -0.430942 -0.131657 -0.754426 -0.922288
